{"learner":{"attributes":{"scikit_learn":"{\"_estimator_type\": \"classifier\"}"},"feature_names":["TA_AVG","HM_AVG","WS_AVG","effective_humidity","wind_speed","risk_grade_num"],"feature_types":["float","float","float","float","float","float"],"gradient_booster":{"model":{"gbtree_model_param":{"num_parallel_tree":"1","num_trees":"100"},"iteration_indptr":[0,1,2,3,4,5,6,7,8,9,10,11,12,13,14,15,16,17,18,19,20,21,22,23,24,25,26,27,28,29,30,31,32,33,34,35,36,37,38,39,40,41,42,43,44,45,46,47,48,49,50,51,52,53,54,55,56,57,58,59,60,61,62,63,64,65,66,67,68,69,70,71,72,73,74,75,76,77,78,79,80,81,82,83,84,85,86,87,88,89,90,91,92,93,94,95,96,97,98,99,100],"tree_info":[0,0,0,0,0,0,0,0,0,0,0,0,0,0,0,0,0,0,0,0,0,0,0,0,0,0,0,0,0,0,0,0,0,0,0,0,0,0,0,0,0,0,0,0,0,0,0,0,0,0,0,0,0,0,0,0,0,0,0,0,0,0,0,0,0,0,0,0,0,0,0,0,0,0,0,0,0,0,0,0,0,0,0,0,0,0,0,0,0,0,0,0,0,0,0,0,0,0,0,0],"trees":[{"base_weights":[1.0997379E-7,-6.116408E-1,7.6160365E-1,5.0809246E-1,-9.554733E-1,-8.768472E-1,8.784787E-1,-1.90508E0,9.317921E-1,9.0548706E-1,-1.1661103E0,-1.716221E0,1.3110204E0,1.1740488E0,5.131111E-1,-1.9229834E0,-4.0005565E-2,2.30618E-1,1.7719665E0,-1.9494575E-1,1.4806275E0,-1.7506038E0,-9.828513E-1,-1.9606821E-1,-1.5038507E0,-1.7037827E-1,1.796088E-1,1.4138147E0,9.439578E-1,1.1954459E0,-1.1924336E0,-1.9409786E-1,-7.69295E-1,7.3595303E-1,-1.8594663E0,1.8498138E0,-1.6923861E-1,1.5583835E0,-1.6191228E-1,-1.9090407E0,-1.4461564E0,-1.434127E0,-7.5583977E-1,-1.2508695E-1,-1.9030036E0,2.6539725E-1,1.4676144E0,-1.3455405E0,9.9307185E-1,5.2578753E-1,1.5321571E0,-1.8197379E0,-4.5121986E-1,-2.2227375E-2,-1.00004636E-1,-6.413614E-1,1.3135806E0,-1.0770063E0,-1.963892E-1,1.8986931E0,1.1706434E0,1.6969712E0,7.456731E-1,-1.5338328E0,-1.957043E0,-1.2385689E0,-1.958206E-1,-1.1918188E0,-1.7903187E0,5.482315E-1,-9.350232E-1,-1.4074865E-1,7.3162365E-1,-8.572091E-1,-1.9388664E-1,1.733253E-1,-2.5296205E-1,-1.5000696E-1,1.4857461E0,-1.8334185E-1,1.2726682E-1,6.9625664E-1,1.2338257E0,1.7397456E0,-2.2305386E-1,1.1156105E0,1.6691437E0,-1.0589131E0,-1.9842818E-1,1.492592E0,-1.6496384E0,-1.3676125E-1,1.3881469E-1,1.9072765E-1,2.6899952E-2,-1.7500812E-1,1.2726682E-1,7.367689E-2,1.9135767E-1,1.5554711E-1,6.3406266E-2,-1.1111627E-1,1.7257646E-1,-1.7500812E-1,1.5999113E-1,-1.7403501E-1,1.3845512E-1,-1.2858005E-1,-1.9850408E-1,-1.2846449E-1,1.2726682E-1,-8.604589E-2,-1.6087878E-1,-1.4891426E-1,-1.9227634E-1,1.2845801E-1,-3.1232748E-2,-1.4258352E-1,-3.3443168E-2,1.4073284E-1,-4.4451658E-2,-2.2227375E-2,-1.1111627E-1,-1.3726346E-1,1.1999165E-1,1.9260296E-1,1.3957408E-1,1.1999084E-1,4.9309235E-2,1.254694E-1,-1.1429234E-1,1.3586888E-1,1.9172642E-1,-1.9452958E-1,3.2670546E-2,1.3324471E-2,1.3265413E-1,-5.000464E-2,1.6766469E-1,9.999188E-2,-1.7363524E-1,1.7882691E-1,-1.6000742E-1,-8.632468E-2,-1.9334245E-1],"categories":[],"categories_nodes":[],"categories_segments":[],"categories_sizes":[],"default_left":[0,0,0,0,0,0,0,0,0,0,0,0,0,0,0,0,0,0,0,0,0,0,0,0,0,0,0,0,0,0,0,0,0,0,0,0,0,0,0,0,0,0,0,0,0,0,0,0,0,0,0,0,0,0,0,0,0,0,0,0,0,0,0,0,0,0,0,0,0,0,0,0,0,0,0,0,0,0,0,0,0,0,0,0,0,0,0,0,0,0,0,0,0,0,0,0,0,0,0,0,0,0,0,0,0,0,0,0,0,0,0,0,0,0,0,0,0,0,0,0,0,0,0,0,0,0,0,0,0,0,0,0,0,0,0,0,0,0,0,0,0,0,0,0,0],"id":0,"left_children":[1,3,5,7,9,11,13,15,17,19,21,23,25,27,29,31,-1,33,35,-1,37,39,41,-1,43,-1,-1,45,47,49,51,-1,53,55,57,59,-1,61,-1,63,65,67,69,71,73,75,77,79,81,83,85,87,89,-1,-1,91,93,95,-1,97,99,101,103,105,107,109,-1,111,113,115,117,-1,119,121,-1,-1,123,-1,125,-1,-1,127,129,131,133,135,137,139,-1,141,143,-1,-1,-1,-1,-1,-1,-1,-1,-1,-1,-1,-1,-1,-1,-1,-1,-1,-1,-1,-1,-1,-1,-1,-1,-1,-1,-1,-1,-1,-1,-1,-1,-1,-1,-1,-1,-1,-1,-1,-1,-1,-1,-1,-1,-1,-1,-1,-1,-1,-1,-1,-1,-1,-1],"loss_changes":[2.5092983E3,1.1506748E3,4.602124E2,7.2005347E2,8.971382E2,2.965393E2,2.4129895E2,2.0666504E0,3.5202545E2,3.8547107E2,2.1829102E2,3.08667E0,6.886739E1,6.693591E1,1.169251E3,6.607666E-1,0E0,3.4700754E2,7.648651E1,0E0,4.9402374E1,2.0826538E1,1.5934448E2,0E0,3.6359406E1,0E0,0E0,3.6928345E1,7.268353E1,1.6092114E2,1.3274057E2,0E0,1.8795025E-1,2.1107314E2,3.1142578E0,6.6243896E0,0E0,2.016275E1,0E0,2.7347412E0,1.580423E1,4.3005493E1,2.4446198E2,1.8608074E1,2.6948547E-1,2.1933214E1,3.3263428E1,1.9897114E1,4.35708E1,2.1992656E2,2.5341797E1,1.7334412E1,3.122858E2,0E0,0E0,1.1797066E2,1.1514743E2,1.7646963E1,0E0,2.8616333E0,3.2468014E0,1.4996002E1,6.5693054E1,2.696949E1,2.6862793E0,1.6069427E1,0E0,4.2034546E1,5.503479E0,8.071907E1,2.7020258E2,0E0,8.771498E0,3.1737185E-1,0E0,0E0,3.702882E1,0E0,2.0048218E1,0E0,0E0,2.8135818E1,1.839679E1,3.635254E0,1.4289502E2,2.4895798E1,6.6447144E0,4.322954E1,0E0,4.972592E1,1.679805E1,0E0,0E0,0E0,0E0,0E0,0E0,0E0,0E0,0E0,0E0,0E0,0E0,0E0,0E0,0E0,0E0,0E0,0E0,0E0,0E0,0E0,0E0,0E0,0E0,0E0,0E0,0E0,0E0,0E0,0E0,0E0,0E0,0E0,0E0,0E0,0E0,0E0,0E0,0E0,0E0,0E0,0E0,0E0,0E0,0E0,0E0,0E0,0E0,0E0,0E0,0E0,0E0,0E0,0E0],"parents":[2147483647,0,0,1,1,2,2,3,3,4,4,5,5,6,6,7,7,8,8,9,9,10,10,11,11,12,12,13,13,14,14,15,15,17,17,18,18,20,20,21,21,22,22,24,24,27,27,28,28,29,29,30,30,32,32,33,33,34,34,35,35,37,37,39,39,40,40,41,41,42,42,43,43,44,44,45,45,46,46,47,47,48,48,49,49,50,50,51,51,52,52,55,55,56,56,57,57,59,59,60,60,61,61,62,62,63,63,64,64,65,65,67,67,68,68,69,69,70,70,72,72,73,73,76,76,78,78,81,81,82,82,83,83,84,84,85,85,86,86,87,87,89,89,90,90],"right_children":[2,4,6,8,10,12,14,16,18,20,22,24,26,28,30,32,-1,34,36,-1,38,40,42,-1,44,-1,-1,46,48,50,52,-1,54,56,58,60,-1,62,-1,64,66,68,70,72,74,76,78,80,82,84,86,88,90,-1,-1,92,94,96,-1,98,100,102,104,106,108,110,-1,112,114,116,118,-1,120,122,-1,-1,124,-1,126,-1,-1,128,130,132,134,136,138,140,-1,142,144,-1,-1,-1,-1,-1,-1,-1,-1,-1,-1,-1,-1,-1,-1,-1,-1,-1,-1,-1,-1,-1,-1,-1,-1,-1,-1,-1,-1,-1,-1,-1,-1,-1,-1,-1,-1,-1,-1,-1,-1,-1,-1,-1,-1,-1,-1,-1,-1,-1,-1,-1,-1,-1,-1],"split_conditions":[3.6E0,2.1E0,2.2E0,3.25275E1,1.9E0,4.03E1,2.8E0,1.16618E1,1.81E1,1.8E0,3.293157E1,3.63E1,-2.2E0,3.51E1,3.7E0,3.2410496E1,-4.0005565E-2,5.9E0,3.65E1,-1.9494575E-1,-2.9E0,8.9E0,2.6E0,-1.9606821E-1,3.66E1,-1.7037827E-1,1.796088E-1,7.0313582E0,3.57E1,3.41E1,4.03E1,-1.9409786E-1,1.6E0,7E-1,6.1E0,3.59E1,-1.6923861E-1,3.36E1,-1.6191228E-1,2.3E0,1.11E1,7.7E0,2.7E0,3.65E1,3.789107E0,2.72E1,-1.3E0,9.732805E0,7.9114094E0,2.69E1,7.4135523E0,4.4E0,4.07E1,-2.2227375E-2,-1.00004636E-1,2E0,3.6E0,8.9E0,-1.963892E-1,7.1018786E0,7.5E0,2.97E1,3.65E1,1.81E1,2.69E1,1.2842224E1,-1.958206E-1,3.77E1,3.9E0,3.9E0,8.5E0,-1.4074865E-1,8.039455E0,3.87299E1,-1.9388664E-1,1.733253E-1,3.4199806E1,-1.5000696E-1,2.86E1,-1.8334185E-1,1.2726682E-1,7.2E0,1.01E1,2.54E1,3.11E1,3.9E0,4.1E0,7.1E0,-1.9842818E-1,7.7200403E0,4.12E1,-1.3676125E-1,1.3881469E-1,1.9072765E-1,2.6899952E-2,-1.7500812E-1,1.2726682E-1,7.367689E-2,1.9135767E-1,1.5554711E-1,6.3406266E-2,-1.1111627E-1,1.7257646E-1,-1.7500812E-1,1.5999113E-1,-1.7403501E-1,1.3845512E-1,-1.2858005E-1,-1.9850408E-1,-1.2846449E-1,1.2726682E-1,-8.604589E-2,-1.6087878E-1,-1.4891426E-1,-1.9227634E-1,1.2845801E-1,-3.1232748E-2,-1.4258352E-1,-3.3443168E-2,1.4073284E-1,-4.4451658E-2,-2.2227375E-2,-1.1111627E-1,-1.3726346E-1,1.1999165E-1,1.9260296E-1,1.3957408E-1,1.1999084E-1,4.9309235E-2,1.254694E-1,-1.1429234E-1,1.3586888E-1,1.9172642E-1,-1.9452958E-1,3.2670546E-2,1.3324471E-2,1.3265413E-1,-5.000464E-2,1.6766469E-1,9.999188E-2,-1.7363524E-1,1.7882691E-1,-1.6000742E-1,-8.632468E-2,-1.9334245E-1],"split_indices":[2,2,1,3,1,3,1,4,0,1,3,3,0,3,2,3,0,1,3,0,0,1,2,0,3,0,0,4,3,3,3,0,0,0,1,3,0,3,0,2,1,4,2,3,2,3,0,4,4,3,4,0,3,0,0,2,0,0,0,4,4,3,3,0,3,4,0,3,0,1,1,0,4,3,0,0,3,0,3,0,0,4,4,3,3,0,1,1,0,4,3,0,0,0,0,0,0,0,0,0,0,0,0,0,0,0,0,0,0,0,0,0,0,0,0,0,0,0,0,0,0,0,0,0,0,0,0,0,0,0,0,0,0,0,0,0,0,0,0,0,0,0,0,0,0],"split_type":[0,0,0,0,0,0,0,0,0,0,0,0,0,0,0,0,0,0,0,0,0,0,0,0,0,0,0,0,0,0,0,0,0,0,0,0,0,0,0,0,0,0,0,0,0,0,0,0,0,0,0,0,0,0,0,0,0,0,0,0,0,0,0,0,0,0,0,0,0,0,0,0,0,0,0,0,0,0,0,0,0,0,0,0,0,0,0,0,0,0,0,0,0,0,0,0,0,0,0,0,0,0,0,0,0,0,0,0,0,0,0,0,0,0,0,0,0,0,0,0,0,0,0,0,0,0,0,0,0,0,0,0,0,0,0,0,0,0,0,0,0,0,0,0,0],"sum_hessian":[5.38475E3,2.9865E3,2.39825E3,7.015E2,2.285E3,1.5925E2,2.239E3,1.0425E2,5.9725E2,2.32E2,2.053E3,1.1525E2,4.4E1,1.2365E3,1.0025E3,1.0275E2,1.5E0,3.2625E2,2.71E2,3.85E1,1.935E2,4.88E2,1.565E3,4.975E1,6.55E1,5.75E0,3.825E1,6.03E2,6.335E2,7.1625E2,2.8625E2,1.005E2,2.25E0,2.6325E2,6.3E1,2.655E2,5.5E0,1.8925E2,4.25E0,3.175E2,1.705E2,5.22E2,1.043E3,1.5E1,5.05E1,2.725E1,5.7575E2,1.275E1,6.2075E2,2.405E2,4.7575E2,1.5425E2,1.32E2,1.25E0,1E0,7.775E1,1.855E2,8.75E0,5.425E1,2.46E2,1.95E1,1.6075E2,2.85E1,3.975E1,2.7775E2,1.2375E2,4.675E1,3.1325E2,2.0875E2,1.2575E2,9.1725E2,5.75E0,9.25E0,2.5E0,4.8E1,6.5E0,2.075E1,3E0,5.7275E2,1.1E1,1.75E0,2.7975E2,3.41E2,9.125E1,1.4925E2,1.2E2,3.5575E2,2.875E1,1.255E2,5.025E1,8.175E1,5.75E1,2.025E1,1.1775E2,6.775E1,7E0,1.75E0,3.75E0,2.4225E2,1.025E1,9.25E0,1.25E0,1.595E2,7E0,2.15E1,3.75E1,2.25E0,1.3E1,2.6475E2,1.22E2,1.75E0,1.7625E2,1.37E2,6.75E1,1.4125E2,6.75E1,5.825E1,5.04E2,4.1325E2,5.75E0,3.5E0,1.25E0,1.25E0,1.175E1,9E0,9.375E1,4.79E2,7.9E1,2.0075E2,3.385E2,2.5E0,3.175E1,5.95E1,3.55E1,1.1375E2,2.15E1,9.85E1,1E0,3.5475E2,7E0,2.175E1,4.625E1,4E0,2.275E1,5.9E1],"tree_param":{"num_deleted":"0","num_feature":"6","num_nodes":"145","size_leaf_vector":"1"}},{"base_weights":[-3.5516915E-4,-5.542452E-1,6.891688E-1,4.608067E-1,-8.651484E-1,-7.995777E-1,7.9502594E-1,-1.7340739E0,8.4551513E-1,8.2003117E-1,-1.0553387E0,-1.5632465E0,1.1896976E0,1.0616553E0,4.647155E-1,-1.7502198E0,-3.761454E-2,2.088439E-1,1.6101949E0,-1.7763768E-1,1.3420291E0,-1.5898206E0,-8.8847286E-1,-1.7857914E-1,-1.3700076E0,-1.5686356E-1,1.634314E0,1.2803596E0,8.5233563E-1,1.0827459E0,-1.0844371E0,-1.7840704E-1,-1.0539471E0,6.670596E-1,-1.693245E0,1.6815943E0,-1.5589146E-1,1.413401E0,-1.4962307E-1,-1.735868E0,-1.3102652E0,-1.2992849E0,-6.8237E-1,-1.157819E-1,-1.7348448E0,1.1469916E0,1.7410499E-1,2.4562109E-1,1.3288484E0,-1.2242581E0,8.966828E-1,4.7605672E-1,1.3883252E0,-1.6550927E0,-4.112191E-1,2.6621614E-2,-1.5225504E-1,-4.2235827E-1,1.2825191E0,-9.805597E-1,-1.7884827E-1,1.7259212E0,1.0681329E0,1.53937E0,6.750975E-1,-1.3917192E0,-1.7800078E0,-1.1194527E0,-1.7837152E-1,-1.0960101E0,-1.660024E0,4.954105E-1,-8.4429604E-1,-1.2932172E-1,6.6995203E-1,-8.1055313E-1,-1.765667E-1,1.2789302E-1,1.2320547E-2,1.5937462E-1,-2.2943899E-1,-1.3936251E-1,1.3455256E0,-1.6786695E-1,1.19486466E-1,6.030584E-1,1.0979383E0,1.5816065E0,-2.0245813E-1,1.0090303E0,1.5134912E0,-9.616276E-1,-1.805566E-1,1.3545065E0,-1.4991791E0,-8.9058325E-2,9.814494E-2,-1.651085E-1,1.4290546E-1,-1.6080455E-1,1.19486466E-1,6.793584E-2,1.7393623E-1,1.242761E-1,1.7298618E-2,-1.0512908E-1,1.5662324E-1,-1.6080455E-1,1.4562337E-1,-1.5828648E-1,1.2931333E-1,-1.1710443E-1,-1.8055166E-1,-1.624044E-1,-8.6206764E-2,-7.795466E-2,-1.4835356E-1,-1.6819315E-1,-8.254777E-2,1.1628927E-1,-2.8169144E-2,-1.2902886E-1,-3.0115603E-2,-1.0867683E-1,1.0357729E-1,-2.0994008E-2,-1.0512908E-1,-1.251744E-1,1.09560005E-1,1.7520405E-1,1.2628095E-1,1.4406793E-1,4.6519723E-2,9.791099E-2,1.4926708E-1,1.2326771E-1,1.7449729E-1,-1.7728843E-1,2.944008E-2,1.2611009E-1,2.9786825E-2,1.3697225E-1,1.6310257E-1,9.144996E-2,-1.582096E-1,1.6263652E-1,-1.4798768E-1,-7.8199856E-2,-1.7599513E-1],"categories":[],"categories_nodes":[],"categories_segments":[],"categories_sizes":[],"default_left":[0,0,0,0,0,0,0,0,0,0,0,0,0,0,0,0,0,0,0,0,0,0,0,0,0,0,0,0,0,0,0,0,0,0,0,0,0,0,0,0,0,0,0,0,0,0,0,0,0,0,0,0,0,0,0,0,0,0,0,0,0,0,0,0,0,0,0,0,0,0,0,0,0,0,0,0,0,0,0,0,0,0,0,0,0,0,0,0,0,0,0,0,0,0,0,0,0,0,0,0,0,0,0,0,0,0,0,0,0,0,0,0,0,0,0,0,0,0,0,0,0,0,0,0,0,0,0,0,0,0,0,0,0,0,0,0,0,0,0,0,0,0,0,0,0,0,0,0,0],"id":1,"left_children":[1,3,5,7,9,11,13,15,17,19,21,23,25,27,29,31,-1,33,35,-1,37,39,41,-1,43,-1,45,47,49,51,53,-1,55,57,59,61,-1,63,-1,65,67,69,71,73,75,77,-1,79,81,83,85,87,89,91,93,-1,-1,95,97,99,-1,101,103,105,107,109,111,113,-1,115,117,119,121,-1,123,125,-1,-1,-1,-1,127,-1,129,-1,-1,131,133,135,137,139,141,143,-1,145,147,-1,-1,-1,-1,-1,-1,-1,-1,-1,-1,-1,-1,-1,-1,-1,-1,-1,-1,-1,-1,-1,-1,-1,-1,-1,-1,-1,-1,-1,-1,-1,-1,-1,-1,-1,-1,-1,-1,-1,-1,-1,-1,-1,-1,-1,-1,-1,-1,-1,-1,-1,-1,-1,-1],"loss_changes":[2.0459811E3,9.3790845E2,3.7671338E2,5.901851E2,7.298572E2,2.4327727E2,1.9576685E2,1.6286316E0,2.8880658E2,3.157771E2,1.809104E2,2.5103455E0,5.732408E1,5.5322876E1,9.5585706E2,5.4278564E-1,0E0,2.8458716E2,6.364215E1,0E0,4.1230408E1,1.753186E1,1.3121216E2,0E0,2.9995232E1,0E0,2.8633118E-2,2.9810242E1,5.935974E1,1.315747E2,1.0875568E2,0E0,4.8656406E0,1.7675195E2,2.5509033E0,5.3413086E0,0E0,1.652658E1,0E0,2.3164673E0,1.3410431E1,3.6320923E1,1.989591E2,1.5614702E1,2.3117065E-2,1.1834345E0,0E0,1.8370949E1,2.7915894E1,1.701212E1,3.5976105E1,1.806863E2,2.0967957E1,1.4316956E1,2.5563982E2,0E0,0E0,6.3728477E1,7.465695E1,1.5148241E1,0E0,2.2617798E0,2.9784145E0,1.2820435E1,5.4613724E1,2.2809296E1,2.1745605E0,1.4735764E1,0E0,4.0002075E1,2.003296E0,6.592144E1,2.2139954E2,0E0,7.6933894E0,2.8477955E-1,0E0,0E0,0E0,0E0,3.071535E1,0E0,1.6972656E1,0E0,0E0,2.870205E1,1.5736145E1,3.0682068E0,1.1747506E2,2.123745E1,3.7521973E0,3.5868088E1,0E0,4.1594284E1,1.3989395E1,0E0,0E0,0E0,0E0,0E0,0E0,0E0,0E0,0E0,0E0,0E0,0E0,0E0,0E0,0E0,0E0,0E0,0E0,0E0,0E0,0E0,0E0,0E0,0E0,0E0,0E0,0E0,0E0,0E0,0E0,0E0,0E0,0E0,0E0,0E0,0E0,0E0,0E0,0E0,0E0,0E0,0E0,0E0,0E0,0E0,0E0,0E0,0E0,0E0,0E0,0E0,0E0,0E0,0E0],"parents":[2147483647,0,0,1,1,2,2,3,3,4,4,5,5,6,6,7,7,8,8,9,9,10,10,11,11,12,12,13,13,14,14,15,15,17,17,18,18,20,20,21,21,22,22,24,24,26,26,27,27,28,28,29,29,30,30,32,32,33,33,34,34,35,35,37,37,39,39,40,40,41,41,42,42,43,43,44,44,45,45,47,47,48,48,49,49,50,50,51,51,52,52,53,53,54,54,57,57,58,58,59,59,61,61,62,62,63,63,64,64,65,65,66,66,67,67,69,69,70,70,71,71,72,72,74,74,75,75,80,80,82,82,85,85,86,86,87,87,88,88,89,89,90,90,91,91,93,93,94,94],"right_children":[2,4,6,8,10,12,14,16,18,20,22,24,26,28,30,32,-1,34,36,-1,38,40,42,-1,44,-1,46,48,50,52,54,-1,56,58,60,62,-1,64,-1,66,68,70,72,74,76,78,-1,80,82,84,86,88,90,92,94,-1,-1,96,98,100,-1,102,104,106,108,110,112,114,-1,116,118,120,122,-1,124,126,-1,-1,-1,-1,128,-1,130,-1,-1,132,134,136,138,140,142,144,-1,146,148,-1,-1,-1,-1,-1,-1,-1,-1,-1,-1,-1,-1,-1,-1,-1,-1,-1,-1,-1,-1,-1,-1,-1,-1,-1,-1,-1,-1,-1,-1,-1,-1,-1,-1,-1,-1,-1,-1,-1,-1,-1,-1,-1,-1,-1,-1,-1,-1,-1,-1,-1,-1,-1,-1],"split_conditions":[3.6E0,2.1E0,2.2E0,3.25275E1,1.9E0,4.03E1,2.8E0,1.16618E1,1.81E1,1.8E0,3.293157E1,3.63E1,-2.2E0,3.51E1,3.7E0,3.223766E1,-3.761454E-2,5.9E0,3.65E1,-1.7763768E-1,-2.9E0,8.9E0,2.6E0,-1.7857914E-1,3.66E1,-1.5686356E-1,7.7200403E0,7.0313582E0,3.57E1,3.41E1,4.03E1,-1.7840704E-1,7.146025E0,4.3E0,6.1E0,3.59E1,-1.5589146E-1,3.36E1,-1.4962307E-1,2.3E0,1.11E1,7.76458E0,2.7E0,3.65E1,3.789107E0,7.5813217E0,1.7410499E-1,2.72E1,-1.3E0,9.732805E0,7.820795E0,2.69E1,7.4135523E0,4.4E0,4.07E1,2.6621614E-2,-1.5225504E-1,2E0,7E-1,8.9E0,-1.7884827E-1,7.1018786E0,7.986637E0,2.97E1,3.65E1,1.81E1,2.69E1,3.11E1,-1.7837152E-1,3.77E1,4.35E1,3.9E0,8.5E0,-1.2932172E-1,-2.2E0,3.87299E1,-1.765667E-1,1.2789302E-1,1.2320547E-2,1.5937462E-1,3.4199806E1,-1.3936251E-1,2.86E1,-1.6786695E-1,1.19486466E-1,3.58E1,9.220144E0,2.54E1,3.11E1,4.255067E1,3.92E1,7.1E0,-1.805566E-1,7.7200403E0,4.12E1,-8.9058325E-2,9.814494E-2,-1.651085E-1,1.4290546E-1,-1.6080455E-1,1.19486466E-1,6.793584E-2,1.7393623E-1,1.242761E-1,1.7298618E-2,-1.0512908E-1,1.5662324E-1,-1.6080455E-1,1.4562337E-1,-1.5828648E-1,1.2931333E-1,-1.1710443E-1,-1.8055166E-1,-1.624044E-1,-8.6206764E-2,-7.795466E-2,-1.4835356E-1,-1.6819315E-1,-8.254777E-2,1.1628927E-1,-2.8169144E-2,-1.2902886E-1,-3.0115603E-2,-1.0867683E-1,1.0357729E-1,-2.0994008E-2,-1.0512908E-1,-1.251744E-1,1.09560005E-1,1.7520405E-1,1.2628095E-1,1.4406793E-1,4.6519723E-2,9.791099E-2,1.4926708E-1,1.2326771E-1,1.7449729E-1,-1.7728843E-1,2.944008E-2,1.2611009E-1,2.9786825E-2,1.3697225E-1,1.6310257E-1,9.144996E-2,-1.582096E-1,1.6263652E-1,-1.4798768E-1,-7.8199856E-2,-1.7599513E-1],"split_indices":[2,2,1,3,1,3,1,4,0,1,3,3,0,3,2,3,0,1,3,0,0,1,2,0,3,0,4,4,3,3,3,0,4,1,1,3,0,3,0,2,1,4,2,3,2,4,0,3,0,4,4,3,4,0,3,0,0,2,0,0,0,4,4,3,3,0,3,3,0,3,3,1,1,0,0,3,0,0,0,0,3,0,3,0,0,3,4,3,3,3,3,1,0,4,3,0,0,0,0,0,0,0,0,0,0,0,0,0,0,0,0,0,0,0,0,0,0,0,0,0,0,0,0,0,0,0,0,0,0,0,0,0,0,0,0,0,0,0,0,0,0,0,0,0,0,0,0,0,0],"split_type":[0,0,0,0,0,0,0,0,0,0,0,0,0,0,0,0,0,0,0,0,0,0,0,0,0,0,0,0,0,0,0,0,0,0,0,0,0,0,0,0,0,0,0,0,0,0,0,0,0,0,0,0,0,0,0,0,0,0,0,0,0,0,0,0,0,0,0,0,0,0,0,0,0,0,0,0,0,0,0,0,0,0,0,0,0,0,0,0,0,0,0,0,0,0,0,0,0,0,0,0,0,0,0,0,0,0,0,0,0,0,0,0,0,0,0,0,0,0,0,0,0,0,0,0,0,0,0,0,0,0,0,0,0,0,0,0,0,0,0,0,0,0,0,0,0,0,0,0,0],"sum_hessian":[5.355088E3,2.9697244E3,2.3853633E3,6.962129E2,2.2735115E3,1.579164E2,2.227447E3,1.0330701E2,5.929059E2,2.302319E2,2.0432795E3,1.14265015E2,4.3651375E1,1.2313096E3,9.961374E2,1.018076E2,1.4994028E0,3.242276E2,2.6867828E2,3.813686E1,1.9209505E2,4.8411166E2,1.5591678E3,4.9275368E1,6.4989655E1,5.7085176E0,3.7942856E1,5.996538E2,6.3165576E2,7.122773E2,2.8386008E2,9.559765E1,6.2099524E0,2.618072E2,6.2420395E1,2.6321744E2,5.4608474E0,1.8787276E2,4.222299E0,3.145649E2,1.6954677E2,5.191246E2,1.0400432E3,1.4941519E1,5.0048134E1,8.9277315E0,2.9015125E1,2.7113909E1,5.725399E2,1.2651092E1,6.1900464E2,2.394458E2,4.728315E2,1.528434E2,1.310167E2,1.7399651E0,4.4699874E0,9.462547E1,1.6718173E2,8.689653E0,5.3730743E1,2.4378859E2,1.9428858E1,1.5956317E2,2.8309572E1,3.9457012E1,2.7510788E2,1.2324168E2,4.6305103E1,3.34611E2,1.845136E2,1.2545778E2,9.1458545E2,5.721654E0,9.219865E0,2.4960027E0,4.755213E1,7.6877685E0,1.2399627E0,6.451374E0,2.0662535E1,2.9832072E0,5.695567E2,1.0908169E1,1.7429227E0,2.5335931E2,3.6564532E2,9.055974E1,1.4888606E2,1.1956637E2,3.5326514E2,2.8569557E1,1.2427384E2,4.985636E1,8.116033E1,7.12323E1,2.3393173E1,7.465087E0,1.5971664E2,6.94673E0,1.7429227E0,3.7449026E0,2.4004369E2,1.5932384E1,3.4964743E0,1.2461559E0,1.5831702E2,6.94673E0,2.136284E1,3.7217773E1,2.239237E0,1.2946492E1,2.621614E2,3.983577E1,8.340591E1,1.858514E2,1.4875958E2,1.7880447E2,5.7091284E0,6.72219E1,5.8235874E1,5.0145035E2,4.131351E2,1.2493854E0,7.970479E0,1.2498469E0,1.2461559E0,1.1694901E1,8.967632E0,9.2885086E1,4.7667163E2,3.4470745E1,2.1888857E2,2.8371698E2,8.192836E1,3.1603722E1,5.895602E1,3.516658E1,1.13719475E2,8.770584E1,3.1860527E1,1.6459088E2,1.8867426E2,6.9824996E0,2.1587057E1,4.5881824E1,3.9745362E0,2.2707762E1,5.8452568E1],"tree_param":{"num_deleted":"0","num_feature":"6","num_nodes":"149","size_leaf_vector":"1"}},{"base_weights":[-7.014005E-4,-5.0718135E-1,6.2942386E-1,4.2254972E-1,-7.9030293E-1,-7.3937565E-1,7.259242E-1,-1.6033564E0,7.756403E-1,7.5233936E-1,-9.630685E-1,-1.4458294E0,1.0972897E0,9.6701145E-1,4.2553625E-1,-1.6184775E0,-3.5382565E-2,9.979613E-1,-1.1623675E0,-1.644795E-1,1.2316544E0,-1.4641393E0,-8.083609E-1,-1.6531864E-1,-1.266237E0,-1.460177E-1,1.5107709E0,1.170624E0,7.735748E-1,9.901242E-1,-1.0006518E0,-1.6699703E-1,-1.1412642E0,1.1147847E0,-1.5122404E0,-1.4782561E0,3.9711928E-1,1.2980146E0,-1.3959108E-1,-1.6038389E0,-1.1995671E0,-1.3423378E0,-6.6549283E-1,-1.1375829E-1,-1.6059901E-1,8.575441E-1,1.5704022E-1,2.2927919E-1,1.2147793E0,-1.1280886E0,8.1367815E-1,4.342779E-1,1.2712654E0,-1.5292702E0,-3.796378E-1,1.7017277E-1,-1.5455519E-1,5.374791E-1,1.4942282E0,-1.6121541E-1,1.7212152E-2,-1.7271781E-1,-7.06396E-1,-1.2783413E-1,1.025107E0,1.4141747E0,6.180185E-1,-1.2786256E0,-1.645823E0,-1.0202965E0,-1.6513357E-1,-1.0906868E0,-1.7078786E0,1.0342886E0,-7.9459417E-1,-1.1971729E-1,6.064915E-1,1.1925534E-1,2.5435189E-2,1.4824729E-1,-2.0962396E-1,-1.3047323E-1,1.230265E0,-1.5578678E-1,1.1272537E-1,5.6708604E-1,1.0155321E0,1.4566059E0,-1.8481764E-1,8.370994E-1,1.3688804E0,-8.8274187E-1,-1.6708228E-1,1.2456819E0,-1.3794539E0,-9.81176E-2,1.05008356E-1,1.0498847E-1,-1.8083704E-1,2.4626127E-2,1.546126E-1,1.0911629E-1,-1.5899354E-1,1.11712076E-1,3.4285326E-2,-9.979173E-2,1.439634E-1,-1.4951545E-1,1.3395815E-1,-1.4580838E-1,1.2151857E-1,-1.0736878E-1,-1.6702044E-1,-1.06439106E-1,1.2952791E-1,-1.1379951E-1,1.673642E-1,-1.7381598E-1,-1.1567091E-1,1.1228595E-1,-1.2635428E-1,-1.1805799E-1,-4.5756083E-2,1.2155529E-1,-4.3250795E-2,-1.1501881E-1,1.0060572E-1,1.619166E-1,1.1520845E-1,1.8807529E-2,8.1339866E-2,1.0353217E-1,-1.1681594E-1,1.1270147E-1,1.6131218E-1,-1.6416831E-1,2.6541024E-2,1.1353556E-1,-2.2818238E-2,1.21152796E-1,1.4891125E-1,8.396145E-2,-1.4596753E-1,1.4992261E-1,-1.3813898E-1,-7.1058385E-2,-1.6276509E-1],"categories":[],"categories_nodes":[],"categories_segments":[],"categories_sizes":[],"default_left":[0,0,0,0,0,0,0,0,0,0,0,0,0,0,0,0,0,0,0,0,0,0,0,0,0,0,0,0,0,0,0,0,0,0,0,0,0,0,0,0,0,0,0,0,0,0,0,0,0,0,0,0,0,0,0,0,0,0,0,0,0,0,0,0,0,0,0,0,0,0,0,0,0,0,0,0,0,0,0,0,0,0,0,0,0,0,0,0,0,0,0,0,0,0,0,0,0,0,0,0,0,0,0,0,0,0,0,0,0,0,0,0,0,0,0,0,0,0,0,0,0,0,0,0,0,0,0,0,0,0,0,0,0,0,0,0,0,0,0,0,0,0,0,0,0,0,0],"id":2,"left_children":[1,3,5,7,9,11,13,15,17,19,21,23,25,27,29,31,-1,33,35,-1,37,39,41,-1,43,-1,45,47,49,51,53,-1,55,57,59,61,63,65,-1,67,69,71,73,75,-1,77,-1,79,81,83,85,87,89,91,93,95,-1,97,99,-1,-1,-1,101,-1,103,105,107,109,111,113,-1,115,117,119,121,-1,123,-1,-1,-1,125,-1,127,-1,-1,129,131,133,135,137,139,141,-1,143,145,-1,-1,-1,-1,-1,-1,-1,-1,-1,-1,-1,-1,-1,-1,-1,-1,-1,-1,-1,-1,-1,-1,-1,-1,-1,-1,-1,-1,-1,-1,-1,-1,-1,-1,-1,-1,-1,-1,-1,-1,-1,-1,-1,-1,-1,-1,-1,-1,-1,-1,-1,-1],"loss_changes":[1.6855144E3,7.710436E2,3.1139648E2,4.9062204E2,5.989978E2,2.0332932E2,1.5883362E2,1.3519897E0,2.5246606E2,2.624357E2,1.5534021E2,2.1044617E0,4.8480995E1,4.7109375E1,7.907682E2,5.604248E-1,0E0,1.5528442E2,3.0384071E1,0E0,3.4845337E1,1.5636597E1,1.16974976E2,0E0,2.514251E1,0E0,1.3980865E-1,2.4326904E1,4.881958E1,1.09333374E2,9.089923E1,0E0,7.120453E0,1.08957214E2,4.268799E0,8.484512E0,1.2859641E1,1.3762573E1,0E0,2.100525E0,1.1933197E1,2.8046692E1,2.687401E2,1.3056995E1,0E0,7.869096E-1,0E0,1.5577303E1,2.365802E1,1.4736408E1,3.007196E1,1.5072137E2,1.8623291E1,1.2270996E1,2.1210051E2,5.030459E0,0E0,2.4264265E2,1.9164734E1,0E0,0E0,0E0,2.3984213E1,0E0,1.530428E-1,1.1108032E1,4.5934746E1,1.9536324E1,1.9628906E0,1.3937042E1,0E0,2.7450073E1,1.725769E-1,1.9047333E1,1.4714825E2,0E0,6.952422E0,0E0,0E0,0E0,2.5663635E1,0E0,1.5230225E1,0E0,0E0,2.5931526E1,1.5785919E1,2.8128967E0,9.812958E1,2.8282143E1,5.3710327E0,3.0140352E1,0E0,3.5264122E1,1.2229065E1,0E0,0E0,0E0,0E0,0E0,0E0,0E0,0E0,0E0,0E0,0E0,0E0,0E0,0E0,0E0,0E0,0E0,0E0,0E0,0E0,0E0,0E0,0E0,0E0,0E0,0E0,0E0,0E0,0E0,0E0,0E0,0E0,0E0,0E0,0E0,0E0,0E0,0E0,0E0,0E0,0E0,0E0,0E0,0E0,0E0,0E0,0E0,0E0,0E0,0E0,0E0,0E0],"parents":[2147483647,0,0,1,1,2,2,3,3,4,4,5,5,6,6,7,7,8,8,9,9,10,10,11,11,12,12,13,13,14,14,15,15,17,17,18,18,20,20,21,21,22,22,24,24,26,26,27,27,28,28,29,29,30,30,32,32,33,33,34,34,35,35,36,36,37,37,39,39,40,40,41,41,42,42,43,43,45,45,47,47,48,48,49,49,50,50,51,51,52,52,53,53,54,54,55,55,57,57,58,58,62,62,64,64,65,65,66,66,67,67,68,68,69,69,71,71,72,72,73,73,74,74,76,76,80,80,82,82,85,85,86,86,87,87,88,88,89,89,90,90,91,91,93,93,94,94],"right_children":[2,4,6,8,10,12,14,16,18,20,22,24,26,28,30,32,-1,34,36,-1,38,40,42,-1,44,-1,46,48,50,52,54,-1,56,58,60,62,64,66,-1,68,70,72,74,76,-1,78,-1,80,82,84,86,88,90,92,94,96,-1,98,100,-1,-1,-1,102,-1,104,106,108,110,112,114,-1,116,118,120,122,-1,124,-1,-1,-1,126,-1,128,-1,-1,130,132,134,136,138,140,142,-1,144,146,-1,-1,-1,-1,-1,-1,-1,-1,-1,-1,-1,-1,-1,-1,-1,-1,-1,-1,-1,-1,-1,-1,-1,-1,-1,-1,-1,-1,-1,-1,-1,-1,-1,-1,-1,-1,-1,-1,-1,-1,-1,-1,-1,-1,-1,-1,-1,-1,-1,-1,-1,-1],"split_conditions":[3.6E0,2.1E0,2.2E0,3.25275E1,1.9E0,4.03E1,2.8E0,1.16618E1,3.8464825E1,1.8E0,3.293157E1,3.63E1,-2.2E0,3.51E1,3.7E0,3.1856468E1,-3.5382565E-2,9.3E0,4.35E1,-1.644795E-1,-2.9E0,8.9E0,3.6E0,-1.6531864E-1,3.66E1,-1.460177E-1,7.309135E0,7.0313582E0,3.57E1,3.41E1,4.03E1,-1.6699703E-1,3.5E0,1.19E1,1.81E1,1.19E1,7.608392E0,3.36E1,-1.3959108E-1,2.3E0,1.11E1,3.89E1,3.1E0,3.65E1,-1.6059901E-1,7.1E0,1.5704022E-1,2.72E1,-1.3E0,9.732805E0,7.9114094E0,2.69E1,7.309135E0,4.4E0,4.07E1,1.7815855E0,-1.5455519E-1,1.9E0,4.3E0,-1.6121541E-1,1.7212152E-2,-1.7271781E-1,1.29E1,-1.2783413E-1,4.43E1,2.97E1,3.65E1,1.81E1,2.69E1,1.2842224E1,-1.6513357E-1,3.8810135E1,3E0,5.6E0,2.783379E0,-1.1971729E-1,8.039455E0,1.1925534E-1,2.5435189E-2,1.4824729E-1,3.4199806E1,-1.3047323E-1,2.86E1,-1.5578678E-1,1.1272537E-1,3.773036E1,1.01E1,2.54E1,3.11E1,4.24E1,3.92E1,7.1E0,-1.6708228E-1,7.7200403E0,4.12E1,-9.81176E-2,1.05008356E-1,1.0498847E-1,-1.8083704E-1,2.4626127E-2,1.546126E-1,1.0911629E-1,-1.5899354E-1,1.11712076E-1,3.4285326E-2,-9.979173E-2,1.439634E-1,-1.4951545E-1,1.3395815E-1,-1.4580838E-1,1.2151857E-1,-1.0736878E-1,-1.6702044E-1,-1.06439106E-1,1.2952791E-1,-1.1379951E-1,1.673642E-1,-1.7381598E-1,-1.1567091E-1,1.1228595E-1,-1.2635428E-1,-1.1805799E-1,-4.5756083E-2,1.2155529E-1,-4.3250795E-2,-1.1501881E-1,1.0060572E-1,1.619166E-1,1.1520845E-1,1.8807529E-2,8.1339866E-2,1.0353217E-1,-1.1681594E-1,1.1270147E-1,1.6131218E-1,-1.6416831E-1,2.6541024E-2,1.1353556E-1,-2.2818238E-2,1.21152796E-1,1.4891125E-1,8.396145E-2,-1.4596753E-1,1.4992261E-1,-1.3813898E-1,-7.1058385E-2,-1.6276509E-1],"split_indices":[2,2,1,3,1,3,1,4,3,1,3,3,0,3,2,3,0,1,3,0,0,1,0,0,3,0,4,4,3,3,3,0,1,0,0,0,4,3,0,2,1,3,1,3,0,4,0,3,0,4,4,3,4,0,3,2,0,0,1,0,0,0,0,0,3,3,3,0,3,4,0,3,0,0,2,0,4,0,0,0,3,0,3,0,0,3,4,3,3,3,3,1,0,4,3,0,0,0,0,0,0,0,0,0,0,0,0,0,0,0,0,0,0,0,0,0,0,0,0,0,0,0,0,0,0,0,0,0,0,0,0,0,0,0,0,0,0,0,0,0,0,0,0,0,0,0,0],"split_type":[0,0,0,0,0,0,0,0,0,0,0,0,0,0,0,0,0,0,0,0,0,0,0,0,0,0,0,0,0,0,0,0,0,0,0,0,0,0,0,0,0,0,0,0,0,0,0,0,0,0,0,0,0,0,0,0,0,0,0,0,0,0,0,0,0,0,0,0,0,0,0,0,0,0,0,0,0,0,0,0,0,0,0,0,0,0,0,0,0,0,0,0,0,0,0,0,0,0,0,0,0,0,0,0,0,0,0,0,0,0,0,0,0,0,0,0,0,0,0,0,0,0,0,0,0,0,0,0,0,0,0,0,0,0,0,0,0,0,0,0,0,0,0,0,0,0,0],"sum_hessian":[5.27933E3,2.9269287E3,2.3524016E3,6.831311E2,2.2437976E3,1.544835E2,2.1979182E3,1.00864746E2,5.8226636E2,2.2564389E2,2.0181537E3,1.11723175E2,4.276033E1,1.2180824E3,9.7983575E2,9.9367004E1,1.4977483E0,5.227801E2,5.9486317E1,3.7194824E1,1.8844907E2,4.7411484E2,1.5440388E3,4.804513E1,6.367804E1,5.5988526E0,3.7161476E1,5.90971E2,6.271114E2,7.0217145E2,2.776643E2,8.743326E1,1.1933744E1,5.000633E2,2.2716768E1,4.9509743E1,9.976572E0,1.8430049E2,4.148585E0,3.069676E2,1.6714725E2,3.2414267E2,1.2198961E3,1.4802203E1,4.887584E1,4.395215E0,3.2766262E1,2.6755802E1,5.642152E2,1.239143E1,6.1472E2,2.3671169E2,4.6545978E2,1.492E2,1.284643E2,2.94848E0,8.985265E0,1.9928185E2,3.0078146E2,2.1485172E1,1.231597E0,3.6500717E1,1.3009027E1,2.4375677E0,7.5390043E0,1.564887E2,2.78118E1,3.8694088E1,2.682735E2,1.2199551E2,4.515174E1,1.943376E2,1.2980507E2,8.561784E1,1.1342783E3,5.6464834E0,9.15572E0,2.1976075E0,2.1976075E0,6.3233004E0,2.0432503E1,2.9381044E0,5.612771E2,1.066782E1,1.7236103E0,2.7841165E2,3.363083E2,8.877028E1,1.4794139E2,8.71986E1,3.7826117E2,2.8098553E1,1.21101456E2,4.8833588E1,7.963071E1,1.2273833E0,1.7210966E0,1.6400955E2,3.527228E1,1.223821E1,2.8854324E2,4.2096047E0,8.799421E0,6.081421E0,1.4575835E0,1.2355124E0,1.5525317E2,6.8064084E0,2.100539E1,3.6483967E1,2.2101185E0,1.2805929E1,2.5546759E2,1.2024605E2,1.7494628E0,1.9164612E2,2.6914818E0,1.2100354E2,8.801528E0,8.293251E1,2.68533E0,5.27574E2,6.067043E2,5.664982E0,3.4907382E0,1.1550124E1,8.882379E0,9.064794E1,4.7062915E2,1.1036001E2,1.6805165E2,3.3380905E2,2.4992316E0,3.1222519E1,5.7547764E1,3.4301353E1,1.13640045E2,6.807365E1,1.9124952E1,1.6863652E2,2.0962465E2,6.936191E0,2.1162361E1,4.492691E1,3.9066741E0,2.2596912E1,5.703379E1],"tree_param":{"num_deleted":"0","num_feature":"6","num_nodes":"147","size_leaf_vector":"1"}},{"base_weights":[-1.0470953E-3,-4.6672487E-1,5.785935E-1,3.8945347E-1,-7.256391E-1,-6.897628E-1,6.6688675E-1,-1.500627E0,7.150626E-1,6.9689786E-1,-8.8297826E-1,-1.3503166E0,1.0222918E0,8.8512E-1,3.9266315E-1,-1.5152123E0,-3.3296127E-2,1.2317836E0,-3.0862538E-2,-1.5415208E-1,1.1408349E0,-1.3618097E0,-7.377562E-1,-1.5493546E-1,-1.1789222E0,-1.3709956E-1,1.4106396E0,1.0777824E0,7.0404196E-1,9.116781E-1,-9.334338E-1,-1.5645169E-1,-1.0633583E0,1.3533117E0,-1.3346454E0,-8.2446826E-1,8.806351E-1,1.203124E0,-1.3122366E-1,-1.4997259E0,-1.1046453E0,-6.191523E-1,-1.3594408E0,-1.0647703E-1,-1.5011748E0,1.0362214E-1,1.5375105E-1,1.5128194E-1,9.9061877E-1,-1.0496125E0,7.4033743E-1,3.9832172E-1,1.1729714E0,-1.4298487E0,-3.538842E-1,1.5465079E-1,-1.4486869E-1,-1.6674815E-1,1.4204925E0,-6.219086E-1,-1.4743513E-1,3.223154E-1,-1.4299066E0,1.1037383E0,-6.929633E-1,1.3113663E0,5.70453E-1,-1.1857104E0,-1.5406499E0,-8.947445E-1,-1.50323E0,-1.194805E0,-4.6484318E-1,9.166651E-1,-1.568244E0,-1.1147419E-1,5.599791E-1,-6.62285E-1,-1.5314958E0,-2.2517197E-1,1.0863993E0,-1.4608394E-1,1.0678428E-1,6.5533435E-1,1.2911624E0,1.3544989E0,-1.6942613E-1,8.6440116E-1,1.305559E0,-8.168963E-1,-1.5658471E-1,1.1570661E0,-1.2810196E0,-9.349621E-2,9.784558E-2,-6.5446265E-2,1.4534535E-1,-9.237074E-2,-1.5951457E-2,-1.6111603E-1,7.684609E-2,-1.6783008E-1,4.6640456E-2,1.6313149E-1,8.550685E-2,1.0144452E-1,-1.4992116E-1,-9.499867E-2,1.3357738E-1,-1.4030802E-1,1.2420732E-1,-1.3559793E-1,1.14777386E-1,-9.8935485E-2,-1.5647785E-1,-9.838536E-2,1.7723836E-1,-1.6151395E-1,3.8188048E-2,-9.468751E-2,-1.589842E-1,1.0442189E-1,-5.914862E-2,-1.5548925E-1,1.976308E-1,-1.1519114E-1,-1.6426396E-1,-1.0077702E-1,8.946194E-2,-1.1006019E-2,-9.220008E-2,-1.5522502E-1,-5.0926633E-2,-1.2099867E-2,1.1376288E-1,6.882126E-2,-6.87195E-2,1.3811833E-1,-1.0857923E-1,1.03626154E-1,1.5088263E-1,-1.4433597E-1,2.7464246E-2,-7.5346413E-3,1.0528045E-1,1.1741372E-1,1.4174734E-1,7.7312954E-2,-1.359456E-1,1.396046E-1,-1.2989883E-1,-6.471351E-2,-1.5233786E-1],"categories":[],"categories_nodes":[],"categories_segments":[],"categories_sizes":[],"default_left":[0,0,0,0,0,0,0,0,0,0,0,0,0,0,0,0,0,0,0,0,0,0,0,0,0,0,0,0,0,0,0,0,0,0,0,0,0,0,0,0,0,0,0,0,0,0,0,0,0,0,0,0,0,0,0,0,0,0,0,0,0,0,0,0,0,0,0,0,0,0,0,0,0,0,0,0,0,0,0,0,0,0,0,0,0,0,0,0,0,0,0,0,0,0,0,0,0,0,0,0,0,0,0,0,0,0,0,0,0,0,0,0,0,0,0,0,0,0,0,0,0,0,0,0,0,0,0,0,0,0,0,0,0,0,0,0,0,0,0,0,0,0,0,0,0,0,0,0,0,0,0,0,0],"id":3,"left_children":[1,3,5,7,9,11,13,15,17,19,21,23,25,27,29,31,-1,33,35,-1,37,39,41,-1,43,-1,45,47,49,51,53,-1,55,57,59,61,63,65,-1,67,69,71,73,75,77,-1,-1,-1,79,81,83,85,87,89,91,93,-1,-1,95,97,-1,99,101,103,105,107,109,111,113,115,117,119,121,123,125,-1,127,129,131,-1,133,-1,-1,135,137,139,141,143,145,147,-1,149,151,-1,-1,-1,-1,-1,-1,-1,-1,-1,-1,-1,-1,-1,-1,-1,-1,-1,-1,-1,-1,-1,-1,-1,-1,-1,-1,-1,-1,-1,-1,-1,-1,-1,-1,-1,-1,-1,-1,-1,-1,-1,-1,-1,-1,-1,-1,-1,-1,-1,-1,-1,-1,-1,-1,-1,-1,-1,-1,-1,-1],"loss_changes":[1.3973956E3,6.366461E2,2.58734E2,4.116842E2,4.940249E2,1.7168164E2,1.2871906E2,1.1708374E0,2.1966873E2,2.204783E2,1.3705261E2,1.8950806E0,4.1429302E1,4.11109E1,6.59891E2,4.945984E-1,0E0,1.06806946E2,1.7011676E2,0E0,2.9732086E1,1.4687744E1,1.11643555E2,0E0,2.154383E1,0E0,1.6698456E-1,2.0479248E1,4.0339203E1,9.191229E1,7.7126785E1,0E0,6.1623316E0,6.7701416E1,6.488228E-1,8.773263E1,3.9197968E1,1.1592926E1,0E0,1.9921265E0,1.2431381E1,1.1340918E2,1.1719934E2,1.1097938E1,2.1208191E-1,0E0,0E0,0E0,1.5329623E2,1.2894744E1,2.7693756E1,1.2716027E2,1.7522766E1,1.080954E1,1.7774525E2,4.4553638E0,0E0,0E0,2.2526855E1,4.5364296E-1,0E0,3.9406406E1,3.961888E1,1.1234306E1,2.1079468E1,9.719757E0,3.898453E1,1.6894276E1,1.904602E0,2.7966095E1,1.2289642E1,2.4995209E1,1.942905E2,5.8329224E1,5.029724E0,0E0,6.173908E0,3.9243817E-1,1.8052673E-1,0E0,2.9362793E1,0E0,0E0,2.3870865E1,1.8715805E1,2.7200928E0,8.389284E1,2.4861649E1,2.9968262E0,2.557165E1,0E0,3.0206001E1,1.1066574E1,0E0,0E0,0E0,0E0,0E0,0E0,0E0,0E0,0E0,0E0,0E0,0E0,0E0,0E0,0E0,0E0,0E0,0E0,0E0,0E0,0E0,0E0,0E0,0E0,0E0,0E0,0E0,0E0,0E0,0E0,0E0,0E0,0E0,0E0,0E0,0E0,0E0,0E0,0E0,0E0,0E0,0E0,0E0,0E0,0E0,0E0,0E0,0E0,0E0,0E0,0E0,0E0,0E0,0E0,0E0,0E0,0E0,0E0,0E0,0E0],"parents":[2147483647,0,0,1,1,2,2,3,3,4,4,5,5,6,6,7,7,8,8,9,9,10,10,11,11,12,12,13,13,14,14,15,15,17,17,18,18,20,20,21,21,22,22,24,24,26,26,27,27,28,28,29,29,30,30,32,32,33,33,34,34,35,35,36,36,37,37,39,39,40,40,41,41,42,42,43,43,44,44,48,48,49,49,50,50,51,51,52,52,53,53,54,54,55,55,58,58,59,59,61,61,62,62,63,63,64,64,65,65,66,66,67,67,68,68,69,69,70,70,71,71,72,72,73,73,74,74,76,76,77,77,78,78,80,80,83,83,84,84,85,85,86,86,87,87,88,88,89,89,91,91,92,92],"right_children":[2,4,6,8,10,12,14,16,18,20,22,24,26,28,30,32,-1,34,36,-1,38,40,42,-1,44,-1,46,48,50,52,54,-1,56,58,60,62,64,66,-1,68,70,72,74,76,78,-1,-1,-1,80,82,84,86,88,90,92,94,-1,-1,96,98,-1,100,102,104,106,108,110,112,114,116,118,120,122,124,126,-1,128,130,132,-1,134,-1,-1,136,138,140,142,144,146,148,-1,150,152,-1,-1,-1,-1,-1,-1,-1,-1,-1,-1,-1,-1,-1,-1,-1,-1,-1,-1,-1,-1,-1,-1,-1,-1,-1,-1,-1,-1,-1,-1,-1,-1,-1,-1,-1,-1,-1,-1,-1,-1,-1,-1,-1,-1,-1,-1,-1,-1,-1,-1,-1,-1,-1,-1,-1,-1,-1,-1,-1,-1],"split_conditions":[3.6E0,2.1E0,2.2E0,3.25275E1,1.9E0,4.03E1,2.8E0,1.16618E1,3.52E1,1.8E0,3.293157E1,3.63E1,-2.2E0,3.51E1,3.7E0,3.1856468E1,-3.3296127E-2,9.3E0,1.19E1,-1.5415208E-1,-2.9E0,8.9E0,8.5E0,-1.5493546E-1,3.66E1,-1.3709956E-1,7.9114094E0,2.86E1,3.57E1,3.41E1,4.03E1,-1.5645169E-1,3.5E0,-6E-1,7.1E0,2.8330128E0,3.8464825E1,3.36E1,-1.3122366E-1,2.3E0,8E0,3.6E0,3.32E1,3.65E1,3.789107E0,1.0362214E-1,1.5375105E-1,1.5128194E-1,3.16E1,9.732805E0,9.220144E0,2.69E1,7.5021033E0,4.4E0,4.07E1,1.7815855E0,-1.4486869E-1,-1.6674815E-1,7.1018786E0,3.2667385E1,-1.4743513E-1,2.5E0,4.35E1,1.29E1,1.29E1,2.97E1,3.65E1,1.81E1,2.69E1,7.9114094E0,1.2842224E1,3.89E1,3.1E0,3.1E0,3.1E0,-1.1147419E-1,-2.2E0,3.87299E1,4.01E1,-2.2517197E-1,7.0313582E0,-1.4608394E-1,1.0678428E-1,9.1E0,1.01E1,2.54E1,3.1428314E1,3.9E0,3.92E1,7.1E0,-1.5658471E-1,7.7200403E0,4.12E1,-9.349621E-2,9.784558E-2,-6.5446265E-2,1.4534535E-1,-9.237074E-2,-1.5951457E-2,-1.6111603E-1,7.684609E-2,-1.6783008E-1,4.6640456E-2,1.6313149E-1,8.550685E-2,1.0144452E-1,-1.4992116E-1,-9.499867E-2,1.3357738E-1,-1.4030802E-1,1.2420732E-1,-1.3559793E-1,1.14777386E-1,-9.8935485E-2,-1.5647785E-1,-9.838536E-2,1.7723836E-1,-1.6151395E-1,3.8188048E-2,-9.468751E-2,-1.589842E-1,1.0442189E-1,-5.914862E-2,-1.5548925E-1,1.976308E-1,-1.1519114E-1,-1.6426396E-1,-1.0077702E-1,8.946194E-2,-1.1006019E-2,-9.220008E-2,-1.5522502E-1,-5.0926633E-2,-1.2099867E-2,1.1376288E-1,6.882126E-2,-6.87195E-2,1.3811833E-1,-1.0857923E-1,1.03626154E-1,1.5088263E-1,-1.4433597E-1,2.7464246E-2,-7.5346413E-3,1.0528045E-1,1.1741372E-1,1.4174734E-1,7.7312954E-2,-1.359456E-1,1.396046E-1,-1.2989883E-1,-6.471351E-2,-1.5233786E-1],"split_indices":[2,2,1,3,1,3,1,4,3,1,3,3,0,3,2,3,0,1,0,0,0,1,4,0,3,0,4,3,3,3,3,0,1,0,4,1,3,3,0,2,4,0,3,3,2,0,0,0,3,4,4,3,4,0,3,2,0,0,4,3,0,1,3,0,0,3,3,0,3,4,4,3,1,2,1,0,0,3,3,0,4,0,0,4,4,3,3,0,3,1,0,4,3,0,0,0,0,0,0,0,0,0,0,0,0,0,0,0,0,0,0,0,0,0,0,0,0,0,0,0,0,0,0,0,0,0,0,0,0,0,0,0,0,0,0,0,0,0,0,0,0,0,0,0,0,0,0,0,0,0,0,0,0],"split_type":[0,0,0,0,0,0,0,0,0,0,0,0,0,0,0,0,0,0,0,0,0,0,0,0,0,0,0,0,0,0,0,0,0,0,0,0,0,0,0,0,0,0,0,0,0,0,0,0,0,0,0,0,0,0,0,0,0,0,0,0,0,0,0,0,0,0,0,0,0,0,0,0,0,0,0,0,0,0,0,0,0,0,0,0,0,0,0,0,0,0,0,0,0,0,0,0,0,0,0,0,0,0,0,0,0,0,0,0,0,0,0,0,0,0,0,0,0,0,0,0,0,0,0,0,0,0,0,0,0,0,0,0,0,0,0,0,0,0,0,0,0,0,0,0,0,0,0,0,0,0,0,0,0],"sum_hessian":[5.1749624E3,2.869682E3,2.3052803E3,6.6619666E2,2.203485E3,1.4958855E2,2.155692E3,9.737137E1,5.688253E2,2.1910258E2,1.9843826E3,1.0809432E2,4.149423E1,1.1991523E3,9.565395E2,9.587614E1,1.4952294E0,3.356564E2,2.3316891E2,3.5852875E1,1.8324971E2,4.598317E2,1.5245509E3,4.6294018E1,6.1800304E1,5.4398017E0,3.6054424E1,5.7859247E2,6.205598E2,6.876973E2,2.6884216E2,8.422354E1,1.1652599E1,3.20932E2,1.4724392E1,1.2469622E2,1.08472694E2,1.7920872E2,4.040977E0,2.9616693E2,1.6366476E2,1.2819741E3,2.4257677E2,1.45866995E1,4.7213604E1,1.144518E1,2.4609245E1,9.3846275E1,4.847462E2,1.2017213E1,6.085426E2,2.3281537E2,4.54882E2,1.4401689E2,1.2482528E2,2.9443314E0,8.708268E0,6.4638433E0,3.1446814E2,3.3066137E0,1.1417778E1,4.3247375E1,8.1448845E1,9.526474E1,1.32079525E1,1.5211156E2,2.7097166E1,3.7603485E1,2.5856345E2,1.0933311E2,5.4331654E1,2.695755E2,1.0123986E3,2.0098492E1,2.2247827E2,5.537107E0,9.049592E0,2.4437907E0,4.4769814E1,1.3262961E1,4.7148322E2,1.0322581E1,1.6946319E0,5.290842E2,7.9458374E1,8.622056E1,1.465948E2,1.3897235E2,3.1590964E2,2.7423634E1,1.16593254E2,4.7373234E1,7.745204E1,1.2095621E0,1.7347693E0,4.6224127E0,3.0984573E2,1.3970885E0,1.909525E0,7.618695E0,3.562868E1,7.21173E1,9.331541E0,2.8736788E1,6.652795E1,4.1535873E0,9.054365E0,1.2193178E0,1.5089224E2,6.603603E0,2.0493563E1,3.543666E1,2.1668253E0,1.2603373E1,2.4596007E2,1.0640909E2,2.924019E0,5.142219E1,2.9094627E0,1.6771346E2,1.0186204E2,7.7823105E1,9.345755E2,5.8909063E0,1.4207585E1,3.622722E1,1.8625105E2,1.2380366E0,7.811556E0,1.237119E0,1.2066718E0,4.3370758E1,1.3990567E0,1.913519E1,4.5234802E2,5.1691254E2,1.2171702E1,7.696255E1,2.495828E0,3.0676811E1,5.554375E1,3.7310112E1,1.0928469E2,2.3308857E1,1.1566349E2,1.505771E2,1.6533253E2,6.86884E0,2.0554794E1,4.356577E1,3.807463E0,2.2437489E1,5.5014557E1],"tree_param":{"num_deleted":"0","num_feature":"6","num_nodes":"153","size_leaf_vector":"1"}},{"base_weights":[-1.465228E-3,-4.3170795E-1,5.341016E-1,3.61591E-1,-6.690909E-1,-6.5074486E-1,6.1524487E-1,-1.417823E0,6.641041E-1,6.502149E-1,-8.1271046E-1,-1.2741352E0,9.5925945E-1,8.1269854E-1,3.644222E-1,-1.4322218E0,-3.134338E-2,1.1510731E0,-2.884104E-2,-1.458426E-1,1.0640521E0,-1.276155E0,-6.7527425E-1,-1.4660007E-1,-1.1099017E0,-1.2961428E-1,1.3267963E0,1.4270721E-1,7.606819E-1,8.436308E-1,-8.7801546E-1,-1.4802277E-1,-9.981065E-1,1.2655722E0,-1.2607048E0,-7.617911E-1,8.1275815E-1,1.1229392E0,-1.24114335E-1,-1.4339327E0,-1.0499235E0,-5.649731E-1,-1.2632005E0,-1.0564945E-1,-1.4189614E0,9.635146E-2,1.4527962E-1,-1.9911556E-1,7.973829E-1,2.655361E-1,1.0490935E0,-1.3491772E0,-3.3231503E-1,1.4059106E-1,-1.3687693E-1,-1.5425076E-1,1.32952E0,-5.9075826E-1,-1.3944384E-1,2.902948E-1,-1.3292527E0,1.0178943E0,-6.463187E-1,1.2245889E0,5.298095E-1,-1.0923119E-1,-1.4450136E0,-8.560406E-1,-1.4538171E0,-7.8173053E-1,-1.595097E-1,8.3078563E-1,-1.46028E0,-1.0427233E-1,5.09375E-1,-6.307888E-1,-1.4480909E0,1.0022091E0,6.4204675E-1,1.2687938E0,-6.33254E-1,8.042845E-1,1.2282871E0,-7.605982E-1,-1.4819893E-1,1.0829257E0,-1.1978755E0,-8.9306936E-2,9.148232E-2,-6.0041226E-2,1.3613363E-1,-8.838556E-2,-1.4926312E-2,-1.5001336E-1,6.971757E-2,-1.565714E-1,4.2609427E-2,1.4432527E-2,1.1464705E-1,9.467339E-2,-1.4114223E-1,8.89894E-2,1.4282647E-1,-1.3263446E-1,1.1585623E-1,-7.858693E-2,6.1487764E-2,-1.0073843E-1,-1.469502E-1,-9.278268E-2,1.6138832E-1,-1.5088393E-1,-1.2832069E-3,-5.5915482E-2,-1.5001683E-1,5.3366072E-2,-7.696696E-2,-1.4504932E-1,1.789558E-1,-1.06543876E-1,-1.5314975E-1,1.0717769E-1,-4.1830055E-2,-1.0404321E-2,-8.8121325E-2,-1.468058E-1,-4.836377E-2,-1.0953813E-2,1.0505132E-1,-9.840345E-2,6.7490146E-2,9.567664E-2,1.4241256E-1,6.7527324E-2,-1.673945E-1,8.666783E-2,-7.5253956E-2,9.149408E-2,1.2935375E-1,7.134861E-2,-1.2752624E-1,1.3100012E-1,-1.2287914E-1,-5.9028517E-2,-1.4390352E-1],"categories":[],"categories_nodes":[],"categories_segments":[],"categories_sizes":[],"default_left":[0,0,0,0,0,0,0,0,0,0,0,0,0,0,0,0,0,0,0,0,0,0,0,0,0,0,0,0,0,0,0,0,0,0,0,0,0,0,0,0,0,0,0,0,0,0,0,0,0,0,0,0,0,0,0,0,0,0,0,0,0,0,0,0,0,0,0,0,0,0,0,0,0,0,0,0,0,0,0,0,0,0,0,0,0,0,0,0,0,0,0,0,0,0,0,0,0,0,0,0,0,0,0,0,0,0,0,0,0,0,0,0,0,0,0,0,0,0,0,0,0,0,0,0,0,0,0,0,0,0,0,0,0,0,0,0,0,0,0,0,0,0,0,0,0],"id":4,"left_children":[1,3,5,7,9,11,13,15,17,19,21,23,25,27,29,31,-1,33,35,-1,37,39,41,-1,43,-1,45,-1,47,49,51,-1,53,55,57,59,61,63,-1,65,67,69,71,73,75,-1,-1,-1,77,79,81,83,85,87,-1,-1,89,91,-1,93,95,97,99,101,103,105,107,109,111,113,115,117,119,-1,121,123,125,127,129,131,133,135,137,139,-1,141,143,-1,-1,-1,-1,-1,-1,-1,-1,-1,-1,-1,-1,-1,-1,-1,-1,-1,-1,-1,-1,-1,-1,-1,-1,-1,-1,-1,-1,-1,-1,-1,-1,-1,-1,-1,-1,-1,-1,-1,-1,-1,-1,-1,-1,-1,-1,-1,-1,-1,-1,-1,-1,-1,-1,-1,-1,-1,-1],"loss_changes":[1.1640264E3,5.27768E2,2.1675812E2,3.4859003E2,4.0912946E2,1.4647623E2,1.0403821E2,1.0484467E0,1.8652782E2,1.867779E2,1.2303552E2,1.6738739E0,3.5678406E1,3.6558105E1,5.5429724E2,4.5378113E-1,0E0,9.123236E1,1.4192178E2,0E0,2.5558685E1,1.4335266E1,9.67157E1,0E0,1.8646393E1,0E0,2.3524094E-1,0E0,1.1148248E2,7.947598E1,6.621533E1,0E0,5.382881E0,5.7786987E1,5.3920937E-1,7.379234E1,3.2718727E1,9.848328E0,0E0,3.6398926E0,1.3326538E1,1.11217316E2,9.882492E1,9.367315E0,1.479187E-1,0E0,0E0,0E0,3.354413E1,1.6077643E2,2.072931E1,9.724014E0,1.5008621E2,3.9596128E0,0E0,0E0,1.948462E1,4.201634E-1,0E0,3.3028164E1,3.3894897E1,1.0426453E1,1.8174782E1,8.809265E0,3.3321793E1,2.064787E0,1.2683716E0,2.4220062E1,4.6520996E0,1.3113034E2,1.8760007E2,4.849235E1,4.4574585E0,0E0,5.628258E0,3.593713E-1,1.3362885E-1,2.4906525E1,3.345938E1,2.716751E0,1.2946869E2,2.1256683E1,4.621826E0,2.1857128E1,0E0,2.6082222E1,1.0263496E1,0E0,0E0,0E0,0E0,0E0,0E0,0E0,0E0,0E0,0E0,0E0,0E0,0E0,0E0,0E0,0E0,0E0,0E0,0E0,0E0,0E0,0E0,0E0,0E0,0E0,0E0,0E0,0E0,0E0,0E0,0E0,0E0,0E0,0E0,0E0,0E0,0E0,0E0,0E0,0E0,0E0,0E0,0E0,0E0,0E0,0E0,0E0,0E0,0E0,0E0,0E0,0E0,0E0,0E0,0E0,0E0,0E0,0E0],"parents":[2147483647,0,0,1,1,2,2,3,3,4,4,5,5,6,6,7,7,8,8,9,9,10,10,11,11,12,12,13,13,14,14,15,15,17,17,18,18,20,20,21,21,22,22,24,24,26,26,28,28,29,29,30,30,32,32,33,33,34,34,35,35,36,36,37,37,39,39,40,40,41,41,42,42,43,43,44,44,48,48,49,49,50,50,51,51,52,52,53,53,56,56,57,57,59,59,60,60,61,61,62,62,63,63,64,64,65,65,66,66,67,67,68,68,69,69,70,70,71,71,72,72,74,74,75,75,76,76,77,77,78,78,79,79,80,80,81,81,82,82,83,83,85,85,86,86],"right_children":[2,4,6,8,10,12,14,16,18,20,22,24,26,28,30,32,-1,34,36,-1,38,40,42,-1,44,-1,46,-1,48,50,52,-1,54,56,58,60,62,64,-1,66,68,70,72,74,76,-1,-1,-1,78,80,82,84,86,88,-1,-1,90,92,-1,94,96,98,100,102,104,106,108,110,112,114,116,118,120,-1,122,124,126,128,130,132,134,136,138,140,-1,142,144,-1,-1,-1,-1,-1,-1,-1,-1,-1,-1,-1,-1,-1,-1,-1,-1,-1,-1,-1,-1,-1,-1,-1,-1,-1,-1,-1,-1,-1,-1,-1,-1,-1,-1,-1,-1,-1,-1,-1,-1,-1,-1,-1,-1,-1,-1,-1,-1,-1,-1,-1,-1,-1,-1,-1,-1,-1,-1],"split_conditions":[3.6E0,2.1E0,2.2E0,3.25275E1,1.9E0,4.03E1,2.8E0,1.16618E1,3.52E1,1.8E0,3.293157E1,3.63E1,-2.2E0,2.86E1,3.7E0,3.1856468E1,-3.134338E-2,9.3E0,1.19E1,-1.458426E-1,-2.9E0,3E0,8.5E0,-1.4660007E-1,3.66E1,-1.2961428E-1,7.9114094E0,1.4270721E-1,3.16E1,3.3279175E1,4.03E1,-1.4802277E-1,3.5E0,-6E-1,7.1E0,2.8330128E0,3.8464825E1,3.36E1,-1.24114335E-1,2E0,8E0,1.81E1,3.32E1,3.65E1,3.789107E0,9.635146E-2,1.4527962E-1,-1.9911556E-1,3.51E1,2.69E1,7.7200403E0,4.4E0,4.07E1,1.7815855E0,-1.3687693E-1,-1.5425076E-1,7.1018786E0,3.2667385E1,-1.3944384E-1,2.5E0,4.35E1,4.3E0,1.29E1,3.1856468E1,3.65E1,3.09E1,2.2E0,7.9114094E0,1.20168705E1,4.01E1,2.01E1,3.1E0,3.1E0,-1.0427233E-1,8.039455E0,3.87299E1,4.01E1,7.0313582E0,3.57E1,2.54E1,7.6824627E0,7.7E0,3.4256992E1,7.1E0,-1.4819893E-1,7.7200403E0,4.12E1,-8.9306936E-2,9.148232E-2,-6.0041226E-2,1.3613363E-1,-8.838556E-2,-1.4926312E-2,-1.5001336E-1,6.971757E-2,-1.565714E-1,4.2609427E-2,1.4432527E-2,1.1464705E-1,9.467339E-2,-1.4114223E-1,8.89894E-2,1.4282647E-1,-1.3263446E-1,1.1585623E-1,-7.858693E-2,6.1487764E-2,-1.0073843E-1,-1.469502E-1,-9.278268E-2,1.6138832E-1,-1.5088393E-1,-1.2832069E-3,-5.5915482E-2,-1.5001683E-1,5.3366072E-2,-7.696696E-2,-1.4504932E-1,1.789558E-1,-1.06543876E-1,-1.5314975E-1,1.0717769E-1,-4.1830055E-2,-1.0404321E-2,-8.8121325E-2,-1.468058E-1,-4.836377E-2,-1.0953813E-2,1.0505132E-1,-9.840345E-2,6.7490146E-2,9.567664E-2,1.4241256E-1,6.7527324E-2,-1.673945E-1,8.666783E-2,-7.5253956E-2,9.149408E-2,1.2935375E-1,7.134861E-2,-1.2752624E-1,1.3100012E-1,-1.2287914E-1,-5.9028517E-2,-1.4390352E-1],"split_indices":[2,2,1,3,1,3,1,4,3,1,3,3,0,3,2,3,0,1,0,0,0,2,4,0,3,0,4,0,3,3,3,0,1,0,4,1,3,3,0,1,4,0,3,3,2,0,0,0,3,3,4,0,3,2,0,0,4,3,0,1,3,1,0,3,3,3,2,4,4,3,0,2,1,0,4,3,3,4,3,3,4,4,3,1,0,4,3,0,0,0,0,0,0,0,0,0,0,0,0,0,0,0,0,0,0,0,0,0,0,0,0,0,0,0,0,0,0,0,0,0,0,0,0,0,0,0,0,0,0,0,0,0,0,0,0,0,0,0,0,0,0,0,0,0,0],"split_type":[0,0,0,0,0,0,0,0,0,0,0,0,0,0,0,0,0,0,0,0,0,0,0,0,0,0,0,0,0,0,0,0,0,0,0,0,0,0,0,0,0,0,0,0,0,0,0,0,0,0,0,0,0,0,0,0,0,0,0,0,0,0,0,0,0,0,0,0,0,0,0,0,0,0,0,0,0,0,0,0,0,0,0,0,0,0,0,0,0,0,0,0,0,0,0,0,0,0,0,0,0,0,0,0,0,0,0,0,0,0,0,0,0,0,0,0,0,0,0,0,0,0,0,0,0,0,0,0,0,0,0,0,0,0,0,0,0,0,0,0,0,0,0,0,0],"sum_hessian":[5.049677E3,2.8002864E3,2.2493904E3,6.4483136E2,2.155455E3,1.4372414E2,2.1056663E3,9.31611E1,5.516703E2,2.1126086E2,1.9441941E3,1.037579E2,3.9966232E1,1.1769236E3,9.2874274E2,9.166909E1,1.4920123E0,3.2359906E2,2.2807123E2,3.4245296E1,1.7701558E2,4.4278986E2,1.5014043E3,4.419771E1,5.956019E1,5.2461977E0,3.4720036E1,8.980406E1,1.0871195E3,6.704651E2,2.582776E2,8.037158E1,1.1297509E1,3.093862E2,1.4212843E1,1.2195514E2,1.0611609E2,1.7310637E2,3.9092047E0,2.5771606E2,1.8507379E2,1.2658739E3,2.3553035E2,1.4331983E1,4.5228207E1,1.11678705E1,2.3552162E1,1.3607088E1,1.0735125E3,1.7640904E2,4.9405606E2,1.3781485E2,1.20462746E2,2.926827E0,8.370682E0,6.3738937E0,3.0301233E2,3.2665062E0,1.0946337E1,4.2902126E1,7.905302E1,9.330099E1,1.2815102E1,1.468712E2,2.6235174E1,2.227968E0,2.5548811E2,1.2715463E2,5.7919155E1,8.2428815E2,4.4158572E2,1.9983927E1,2.1554642E2,5.4035363E0,8.928446E0,2.4194195E0,4.280879E1,4.6064905E2,6.128634E2,8.316547E1,9.324357E1,2.1111934E2,2.8293674E2,2.6610914E1,1.1120394E2,4.562012E1,7.484262E1,1.1876847E0,1.7391424E0,4.624505E0,2.9838782E2,1.3610079E0,1.9054983E0,7.446746E0,3.545538E1,6.976329E1,9.289721E0,1.2242927E1,8.105806E1,4.0808372E0,8.734264E0,5.7595406E1,8.927579E1,6.3575215E0,1.9877653E1,1.1076454E0,1.1203225E0,1.577163E1,2.3971648E2,1.2417009E2,2.984549E0,5.5743572E1,2.1755843E0,6.306789E2,1.936093E2,2.0678902E2,2.347967E2,5.7617345E0,1.4222192E1,3.5376083E1,1.8017033E2,5.461863E0,3.4665825E0,1.2357006E0,1.1837189E0,4.1428925E1,1.3798641E0,1.9128487E1,4.4152057E2,1.1564179E1,6.012992E2,3.0020454E1,5.314501E1,4.146195E1,5.1781624E1,2.0341043E2,7.7089024E0,5.135252E1,2.3158421E2,6.7866106E0,1.9824305E1,4.1934315E1,3.6858053E0,2.2245031E1,5.259759E1],"tree_param":{"num_deleted":"0","num_feature":"6","num_nodes":"145","size_leaf_vector":"1"}},{"base_weights":[-1.927277E-3,-4.1473615E-1,4.7788063E-1,3.376601E-1,-6.4575297E-1,-7.012839E-1,5.637821E-1,-1.3496764E0,6.204874E-1,6.1043924E-1,-7.861344E-1,-1.2274647E0,6.7492807E-1,1.2822701E0,5.0231826E-1,-1.3641541E0,-2.9513761E-2,1.0814571E0,-2.9369852E-2,-1.3902119E-1,9.978043E-1,-1.1426505E0,-5.123004E-1,-1.248928E0,-1.7023632E-1,-1.3372956E-1,1.2555274E0,8.859987E-1,1.3604979E-1,-1.3319113E0,5.651866E-1,-1.3941464E-1,-7.868507E-1,1.1898309E0,-1.1973596E0,-1.3183686E0,3.8163856E-1,1.0537273E0,-1.1797521E-1,-1.3246592E0,-9.117128E-1,-1.070846E0,-3.3421317E-1,-1.4177726E-1,-1.0412737E0,3.9850146E-2,-7.3507E-2,8.984396E-2,1.3831006E-1,1.3169728E-1,-3.0846298E-1,2.690681E-1,-1.5018411E0,8.409594E-1,4.116008E-1,2.6358146E-2,-1.1951442E-1,-8.952235E-1,1.2689873E0,-5.618814E-1,-1.3275018E-1,3.419426E-2,-1.5942642E-1,5.4353553E-1,-1.3484465E-1,1.0747236E0,-1.0956234E-1,-9.564737E-1,-1.4947748E0,-7.195875E-1,-1.4405954E0,-1.9393769E-1,-1.2904443E0,-2.1785043E-1,-1.2469424E0,4.7281182E-1,-1.3521235E0,-1.6083457E-1,1.483731E-1,-1.1035629E-1,1.4548011E-1,-1.560758E-1,-6.3738173E-1,-3.7816674E-1,8.8901156E-1,4.56399E-1,-1.6354226E-1,-1.4414684E-1,2.2356526E-3,-5.5167258E-2,1.300653E-1,-8.474159E-2,-1.3967446E-2,-1.3086419E-1,7.463961E-2,-3.060036E-3,8.7780215E-2,-9.471809E-2,1.09536506E-1,-1.4012264E-1,2.8768871E-2,-1.5111628E-1,1.127146E-2,-1.4317487E-1,-5.1821675E-2,6.091028E-2,-1.5062322E-1,-5.2741714E-2,1.15923345E-1,-1.3899323E-1,1.2786245E-1,-8.145379E-2,1.4407462E-3,-9.890243E-2,-1.4848131E-1,-9.3931936E-2,7.827404E-2,-1.3697033E-1,-4.5955483E-2,6.372659E-2,-5.7374626E-2,7.1562596E-2,-1.6693461E-1,-1.1507385E-1,7.66272E-2,-1.630405E-1,9.077922E-2,2.4827303E-2,1.08195744E-1],"categories":[],"categories_nodes":[],"categories_segments":[],"categories_sizes":[],"default_left":[0,0,0,0,0,0,0,0,0,0,0,0,0,0,0,0,0,0,0,0,0,0,0,0,0,0,0,0,0,0,0,0,0,0,0,0,0,0,0,0,0,0,0,0,0,0,0,0,0,0,0,0,0,0,0,0,0,0,0,0,0,0,0,0,0,0,0,0,0,0,0,0,0,0,0,0,0,0,0,0,0,0,0,0,0,0,0,0,0,0,0,0,0,0,0,0,0,0,0,0,0,0,0,0,0,0,0,0,0,0,0,0,0,0,0,0,0,0,0,0,0,0,0,0,0,0,0,0,0],"id":5,"left_children":[1,3,5,7,9,11,13,15,17,19,21,23,25,27,29,31,-1,33,35,-1,37,39,41,43,45,-1,47,49,-1,51,53,-1,55,57,59,61,63,65,-1,67,69,71,73,-1,75,-1,-1,-1,-1,-1,77,79,81,83,85,-1,-1,87,89,91,-1,93,-1,95,-1,97,-1,99,101,103,105,107,109,111,113,115,117,-1,119,-1,-1,-1,121,123,125,127,-1,-1,-1,-1,-1,-1,-1,-1,-1,-1,-1,-1,-1,-1,-1,-1,-1,-1,-1,-1,-1,-1,-1,-1,-1,-1,-1,-1,-1,-1,-1,-1,-1,-1,-1,-1,-1,-1,-1,-1,-1,-1,-1],"loss_changes":[9.735128E2,4.5943433E2,2.3063727E2,2.9733218E2,3.5699463E2,1.129191E2,9.294458E1,9.638519E-1,1.5963528E2,1.5931207E2,1.769867E2,2.3363953E0,5.2451996E1,3.9517517E0,2.260662E2,4.269867E-1,0E0,7.84075E1,1.1815247E2,0E0,2.2103897E1,3.1970581E1,1.0215091E2,2.3783722E0,1.382892E0,0E0,3.1731796E-1,1.600132E1,0E0,1.8100784E1,7.969806E1,0E0,3.1638703E0,5.0330658E1,4.6567154E-1,2.0173264E1,4.811237E1,8.738571E0,0E0,2.6080933E1,3.464096E1,4.7639557E1,8.287424E1,0E0,2.5616623E1,0E0,0E0,0E0,0E0,0E0,5.4896855E0,1.314475E1,2.0080566E0,3.988217E1,1.12237946E2,0E0,0E0,5.7903852E0,1.729718E1,3.9087224E-1,0E0,1.0648655E1,0E0,2.9848972E1,0E0,7.9833984E0,0E0,7.8747406E1,8.03772E0,3.648018E1,1.3370499E1,2.3617455E1,5.25654E1,9.640512E1,3.9493408E0,5.01577E0,6.549072E-2,0E0,2.9988194E0,0E0,0E0,0E0,8.807277E0,2.4135365E1,3.2224182E1,1.5473299E2,0E0,0E0,0E0,0E0,0E0,0E0,0E0,0E0,0E0,0E0,0E0,0E0,0E0,0E0,0E0,0E0,0E0,0E0,0E0,0E0,0E0,0E0,0E0,0E0,0E0,0E0,0E0,0E0,0E0,0E0,0E0,0E0,0E0,0E0,0E0,0E0,0E0,0E0,0E0,0E0,0E0,0E0,0E0],"parents":[2147483647,0,0,1,1,2,2,3,3,4,4,5,5,6,6,7,7,8,8,9,9,10,10,11,11,12,12,13,13,14,14,15,15,17,17,18,18,20,20,21,21,22,22,23,23,24,24,26,26,27,27,29,29,30,30,32,32,33,33,34,34,35,35,36,36,37,37,39,39,40,40,41,41,42,42,44,44,50,50,51,51,52,52,53,53,54,54,57,57,58,58,59,59,61,61,63,63,65,65,67,67,68,68,69,69,70,70,71,71,72,72,73,73,74,74,75,75,76,76,78,78,82,82,83,83,84,84,85,85],"right_children":[2,4,6,8,10,12,14,16,18,20,22,24,26,28,30,32,-1,34,36,-1,38,40,42,44,46,-1,48,50,-1,52,54,-1,56,58,60,62,64,66,-1,68,70,72,74,-1,76,-1,-1,-1,-1,-1,78,80,82,84,86,-1,-1,88,90,92,-1,94,-1,96,-1,98,-1,100,102,104,106,108,110,112,114,116,118,-1,120,-1,-1,-1,122,124,126,128,-1,-1,-1,-1,-1,-1,-1,-1,-1,-1,-1,-1,-1,-1,-1,-1,-1,-1,-1,-1,-1,-1,-1,-1,-1,-1,-1,-1,-1,-1,-1,-1,-1,-1,-1,-1,-1,-1,-1,-1,-1,-1,-1],"split_conditions":[3.5E0,2.1E0,2.2E0,3.25275E1,1.9E0,4.03E1,2.86E1,1.16618E1,3.53E1,1.8E0,3.5750645E1,2.1E0,-2.2E0,2.54E1,3.17E1,3.223766E1,-2.9513761E-2,9.3E0,1.7815855E0,-1.3902119E-1,-2.9E0,7.6E0,2.411387E0,3.65E1,8.250566E0,-1.3372956E-1,7.9114094E0,1.14E1,1.3604979E-1,3.9E0,3.51E1,-1.3941464E-1,7.146025E0,4.1E0,7.1E0,-2.9E0,9.3E0,3.89E1,-1.1797521E-1,3.1E0,8.3E0,3.69E1,8.5E0,-1.4177726E-1,3.66E1,3.9850146E-2,-7.3507E-2,8.984396E-2,1.3831006E-1,1.3169728E-1,1.20168705E1,3.0714205E1,3.16E1,7.0313582E0,1.14E1,2.6358146E-2,-1.1951442E-1,-6E-1,7.1018786E0,3.2667385E1,-1.3275018E-1,-3.6886759E0,-1.5942642E-1,1.19E1,-1.3484465E-1,2.97E1,-1.0956234E-1,7E-1,2.01E1,3.11E1,2.69E1,3.68E1,1.69E1,7.2069087E0,3.84E1,-2.2E0,4.01E1,-1.6083457E-1,1.2842224E1,-1.1035629E-1,1.4548011E-1,-1.560758E-1,7.351904E0,3.4348248E1,1.9E0,7.4E0,-1.6354226E-1,-1.4414684E-1,2.2356526E-3,-5.5167258E-2,1.300653E-1,-8.474159E-2,-1.3967446E-2,-1.3086419E-1,7.463961E-2,-3.060036E-3,8.7780215E-2,-9.471809E-2,1.09536506E-1,-1.4012264E-1,2.8768871E-2,-1.5111628E-1,1.127146E-2,-1.4317487E-1,-5.1821675E-2,6.091028E-2,-1.5062322E-1,-5.2741714E-2,1.15923345E-1,-1.3899323E-1,1.2786245E-1,-8.145379E-2,1.4407462E-3,-9.890243E-2,-1.4848131E-1,-9.3931936E-2,7.827404E-2,-1.3697033E-1,-4.5955483E-2,6.372659E-2,-5.7374626E-2,7.1562596E-2,-1.6693461E-1,-1.1507385E-1,7.66272E-2,-1.630405E-1,9.077922E-2,2.4827303E-2,1.08195744E-1],"split_indices":[2,2,1,3,1,3,3,4,3,1,3,1,0,3,3,3,0,1,2,0,0,1,2,3,4,0,4,4,0,0,3,0,4,1,4,0,1,3,0,1,4,3,4,0,3,0,0,0,0,0,4,3,3,4,0,0,0,0,4,3,0,0,0,0,0,3,0,0,0,3,3,3,1,4,3,0,3,0,4,0,0,0,4,3,0,1,0,0,0,0,0,0,0,0,0,0,0,0,0,0,0,0,0,0,0,0,0,0,0,0,0,0,0,0,0,0,0,0,0,0,0,0,0,0,0,0,0,0,0],"split_type":[0,0,0,0,0,0,0,0,0,0,0,0,0,0,0,0,0,0,0,0,0,0,0,0,0,0,0,0,0,0,0,0,0,0,0,0,0,0,0,0,0,0,0,0,0,0,0,0,0,0,0,0,0,0,0,0,0,0,0,0,0,0,0,0,0,0,0,0,0,0,0,0,0,0,0,0,0,0,0,0,0,0,0,0,0,0,0,0,0,0,0,0,0,0,0,0,0,0,0,0,0,0,0,0,0,0,0,0,0,0,0,0,0,0,0,0,0,0,0,0,0,0,0,0,0,0,0,0,0],"sum_hessian":[4.913018E3,2.6409653E3,2.2720527E3,6.202894E2,2.020676E3,1.537922E2,2.1182605E3,8.850427E1,5.3178516E2,2.0277873E2,1.8178972E3,1.11333176E2,4.245903E1,1.6536353E2,1.9528971E3,8.701604E1,1.4882404E0,3.1071698E2,2.2106818E2,3.2473213E1,1.7030551E2,7.883451E2,1.0295521E3,1.0894021E2,2.392971E0,9.215818E0,3.3243214E1,2.9294546E1,1.3606898E2,6.40485E1,1.8888486E3,8.1373566E1,5.6424675E0,2.9706723E2,1.36497555E1,5.2913612E1,1.6815456E2,1.6654451E2,3.7610154E0,4.3822842E2,3.5011667E2,2.4769093E2,7.818612E2,5.6870735E1,5.206947E1,1.3390976E0,1.0538735E0,1.0867297E1,2.2375916E1,2.1451912E1,7.842634E0,6.089868E0,5.7958637E1,6.740587E2,1.2147899E3,1.6785164E0,3.963951E0,1.0488208E1,2.86579E2,3.2240953E0,1.042566E1,9.113121E0,4.380049E1,1.543927E2,1.3761849E1,1.6542845E2,1.1160473E0,1.405832E2,2.9764523E2,2.5855344E2,9.156324E1,4.998241E1,1.9770853E2,6.9455225E2,8.7308945E1,8.780488E0,4.328898E1,1.3839943E0,6.45864E0,2.8546083E0,3.2352598E0,5.3506447E1,4.4521885E0,2.5300169E1,6.4875854E2,1.1895344E3,2.5255396E1,6.2165093E0,4.271698E0,4.618379E0,2.8196063E2,1.3225543E0,1.901541E0,2.8680449E0,6.245076E0,5.7146458E1,9.724625E1,1.2181596E0,1.642103E2,1.0346954E2,3.711366E1,2.9470074E2,2.9444773E0,5.564636E1,2.0290707E2,2.5842006E0,8.8979034E1,4.0589622E1,9.392788E0,1.9077951E2,6.9290237E0,1.9390054E2,5.0065173E2,4.4363914E1,4.294503E1,1.2147857E0,7.565703E0,4.19286E1,1.3603781E0,3.921317E0,2.5373228E0,2.0590758E0,2.3931127E0,1.51006975E1,1.0199472E1,4.1653433E0,6.445932E2,8.936201E2,2.9591434E2],"tree_param":{"num_deleted":"0","num_feature":"6","num_nodes":"129","size_leaf_vector":"1"}},{"base_weights":[-2.5541605E-3,-3.8616252E-1,4.395047E-1,3.154585E-1,-5.987361E-1,-6.678385E-1,5.1764643E-1,-1.2909873E0,5.79774E-1,5.711899E-1,-7.274517E-1,-1.1698827E0,6.408297E-1,7.073783E-1,2.8784338E-1,-1.3057168E0,-2.7797913E-2,1.1431817E-1,1.1755869E0,-1.3332677E-1,9.323687E-1,-1.1253301E0,-5.0165206E-1,-1.3477461E0,-9.866599E-1,-1.2763633E-1,1.1937475E0,1.2955083E-1,6.6131455E-1,6.898834E-1,-8.605316E-1,-1.35518E-1,-8.7827426E-1,4.4791228E-1,-1.3529246E0,1.240156E0,-1.4126869E-1,9.8525333E-1,-1.12597086E-1,-1.3123178E0,-7.556096E-1,-3.899054E-1,-1.2484201E0,-2.2959378E-2,-1.3659851E-1,-8.755347E-2,-1.2726364E0,8.394723E-2,1.3247567E-1,-1.675576E-1,6.9306505E-1,2.8978857E-1,8.049883E-1,-1.3155744E0,-3.4596696E-1,1.8755761E-1,-1.251691E-1,-3.4461525E-1,9.343751E-1,-7.050397E-1,-1.4421001E-1,1.2900488E0,6.26863E-1,1.0877421E0,4.056793E-1,-7.862845E-1,-1.3954055E0,-5.6991047E-1,-1.312458E0,-1.0139128E0,-2.3470758E-1,1.4302549E-1,-1.2902181E0,-9.011814E-1,4.309775E-1,1.04081035E-2,-1.3127296E0,8.606835E-1,5.708082E-1,1.1303436E0,-5.103649E-1,3.8610148E-1,9.466072E-1,-7.867722E-1,-1.4207402E-1,1.0028223E0,-1.1618522E0,-8.034388E-2,8.897415E-2,-7.1956046E-2,7.6803856E-2,-1.3115865E-1,1.0507905E-1,-1.288956E-1,1.0894479E-1,6.0474362E-2,1.2997514E-1,1.0379305E-1,1.2651364E-2,7.520572E-2,1.2974894E-1,-1.3145135E-1,1.0283208E-1,-1.0376989E-1,4.2144928E-2,-7.96005E-2,-1.4121565E-1,-1.3610685E-1,-3.0536396E-2,5.6272335E-2,-1.4188164E-1,-7.016697E-2,-1.3960047E-1,7.613603E-2,-4.366071E-2,-8.323579E-2,1.6776563E-1,-9.515564E-2,-1.339859E-1,-1.089456E-1,-3.9295252E-2,9.577849E-2,-4.02969E-2,-1.3310906E-1,-4.3688186E-2,-1.5091453E-1,8.866985E-2,1.4880958E-2,6.960434E-2,8.2127325E-2,1.2940611E-1,7.6484494E-2,-1.4824033E-1,-3.639737E-2,5.5235256E-2,-1.2771997E-1,9.672066E-2,1.2795699E-1,-1.2157812E-1,1.22332714E-1,-1.1799065E-1,-5.519287E-2,-1.4160144E-1],"categories":[],"categories_nodes":[],"categories_segments":[],"categories_sizes":[],"default_left":[0,0,0,0,0,0,0,0,0,0,0,0,0,0,0,0,0,0,0,0,0,0,0,0,0,0,0,0,0,0,0,0,0,0,0,0,0,0,0,0,0,0,0,0,0,0,0,0,0,0,0,0,0,0,0,0,0,0,0,0,0,0,0,0,0,0,0,0,0,0,0,0,0,0,0,0,0,0,0,0,0,0,0,0,0,0,0,0,0,0,0,0,0,0,0,0,0,0,0,0,0,0,0,0,0,0,0,0,0,0,0,0,0,0,0,0,0,0,0,0,0,0,0,0,0,0,0,0,0,0,0,0,0,0,0,0,0,0,0,0,0,0,0],"id":6,"left_children":[1,3,5,7,9,11,13,15,17,19,21,23,25,27,29,31,-1,33,35,-1,37,39,41,43,45,-1,47,-1,49,51,53,-1,55,57,59,61,-1,63,-1,65,67,69,71,-1,-1,73,75,-1,-1,-1,77,79,81,83,85,87,-1,89,91,93,-1,95,97,99,101,103,105,107,109,111,113,115,117,119,121,-1,123,125,127,129,131,133,135,137,-1,139,141,-1,-1,-1,-1,-1,-1,-1,-1,-1,-1,-1,-1,-1,-1,-1,-1,-1,-1,-1,-1,-1,-1,-1,-1,-1,-1,-1,-1,-1,-1,-1,-1,-1,-1,-1,-1,-1,-1,-1,-1,-1,-1,-1,-1,-1,-1,-1,-1,-1,-1,-1,-1,-1,-1,-1,-1],"loss_changes":[8.1246545E2,3.8276947E2,1.9295871E2,2.5428886E2,2.969265E2,9.743697E1,9.047821E1,9.0045166E-1,1.4225531E2,1.3586987E2,1.5884033E2,2.1479034E0,4.5461594E1,2.998816E1,4.356316E2,5.6866455E-1,0E0,1.4223782E2,3.9367767E1,0E0,1.9082184E1,4.3362488E1,9.412167E1,7.3495483E-1,1.4363972E1,0E0,4.0503693E-1,0E0,7.965411E1,3.1933807E1,5.686113E1,0E0,4.7997875E0,9.150499E1,2.0945358E0,5.9271545E0,0E0,9.152161E0,0E0,1.7466187E1,2.1779037E1,9.540721E1,8.740738E0,0E0,0E0,6.572986E0,2.4901276E0,0E0,0E0,0E0,2.0911499E1,1.0658507E2,3.1779236E1,6.086685E0,1.29078E2,3.3908482E0,0E0,3.8385822E1,3.9767242E1,1.02813635E1,0E0,5.612793E-1,3.6750221E0,8.645111E0,2.9052832E1,1.8724373E1,2.5456543E0,3.414714E1,1.1511017E1,2.2452835E1,1.5965E2,9.165934E0,1.1278076E0,1.4883614E-1,4.6165786E0,0E0,8.59375E-2,2.8373444E1,3.1970352E1,2.8424606E0,1.02079865E2,1.7484339E1,1.9754517E1,2.2592995E1,0E0,2.2787807E1,1.051767E1,0E0,0E0,0E0,0E0,0E0,0E0,0E0,0E0,0E0,0E0,0E0,0E0,0E0,0E0,0E0,0E0,0E0,0E0,0E0,0E0,0E0,0E0,0E0,0E0,0E0,0E0,0E0,0E0,0E0,0E0,0E0,0E0,0E0,0E0,0E0,0E0,0E0,0E0,0E0,0E0,0E0,0E0,0E0,0E0,0E0,0E0,0E0,0E0,0E0,0E0,0E0,0E0,0E0,0E0,0E0,0E0],"parents":[2147483647,0,0,1,1,2,2,3,3,4,4,5,5,6,6,7,7,8,8,9,9,10,10,11,11,12,12,13,13,14,14,15,15,17,17,18,18,20,20,21,21,22,22,23,23,24,24,26,26,28,28,29,29,30,30,32,32,33,33,34,34,35,35,37,37,39,39,40,40,41,41,42,42,45,45,46,46,50,50,51,51,52,52,53,53,54,54,55,55,57,57,58,58,59,59,61,61,62,62,63,63,64,64,65,65,66,66,67,67,68,68,69,69,70,70,71,71,72,72,73,73,74,74,76,76,77,77,78,78,79,79,80,80,81,81,82,82,83,83,85,85,86,86],"right_children":[2,4,6,8,10,12,14,16,18,20,22,24,26,28,30,32,-1,34,36,-1,38,40,42,44,46,-1,48,-1,50,52,54,-1,56,58,60,62,-1,64,-1,66,68,70,72,-1,-1,74,76,-1,-1,-1,78,80,82,84,86,88,-1,90,92,94,-1,96,98,100,102,104,106,108,110,112,114,116,118,120,122,-1,124,126,128,130,132,134,136,138,-1,140,142,-1,-1,-1,-1,-1,-1,-1,-1,-1,-1,-1,-1,-1,-1,-1,-1,-1,-1,-1,-1,-1,-1,-1,-1,-1,-1,-1,-1,-1,-1,-1,-1,-1,-1,-1,-1,-1,-1,-1,-1,-1,-1,-1,-1,-1,-1,-1,-1,-1,-1,-1,-1,-1,-1,-1,-1],"split_conditions":[3.5E0,2.1E0,2.2E0,3.25275E1,1.9E0,4.03E1,3.5E0,1.16618E1,1.81E1,1.8E0,3.4819096E1,3.63E1,-2.2E0,2.86E1,3.7E0,3.1856468E1,-2.7797913E-2,5.9E0,3.65E1,-1.3332677E-1,-2.9E0,8.6E0,8.5E0,2.72E1,3.66E1,-1.2763633E-1,7.9114094E0,1.2955083E-1,3.16E1,3.293157E1,4.03E1,-1.35518E-1,3.5E0,4.3E0,6.1E0,3.59E1,-1.4126869E-1,3.36E1,-1.12597086E-1,2.3E0,8.3E0,3.6E0,-1.8E0,-2.2959378E-2,-1.3659851E-1,3.65E1,3.7E0,8.394723E-2,1.3247567E-1,-1.675576E-1,3.51E1,2.69E1,7.4135523E0,3.9E0,4.07E1,1.7815855E0,-1.251691E-1,2E0,7E-1,8.9E0,-1.4421001E-1,7.1018786E0,7.5E0,3.1856468E1,3.65E1,3.4256992E1,2.69E1,3.11E1,2.69E1,3.89E1,5.6E0,-2.549365E0,3.1E0,1.8E0,8.039455E0,1.04081035E-2,4.01E1,1.9E0,3.6654224E1,2.54E1,7.6824627E0,6.6E0,4.7E0,7.1E0,-1.4207402E-1,7.7200403E0,4.12E1,-8.034388E-2,8.897415E-2,-7.1956046E-2,7.6803856E-2,-1.3115865E-1,1.0507905E-1,-1.288956E-1,1.0894479E-1,6.0474362E-2,1.2997514E-1,1.0379305E-1,1.2651364E-2,7.520572E-2,1.2974894E-1,-1.3145135E-1,1.0283208E-1,-1.0376989E-1,4.2144928E-2,-7.96005E-2,-1.4121565E-1,-1.3610685E-1,-3.0536396E-2,5.6272335E-2,-1.4188164E-1,-7.016697E-2,-1.3960047E-1,7.613603E-2,-4.366071E-2,-8.323579E-2,1.6776563E-1,-9.515564E-2,-1.339859E-1,-1.089456E-1,-3.9295252E-2,9.577849E-2,-4.02969E-2,-1.3310906E-1,-4.3688186E-2,-1.5091453E-1,8.866985E-2,1.4880958E-2,6.960434E-2,8.2127325E-2,1.2940611E-1,7.6484494E-2,-1.4824033E-1,-3.639737E-2,5.5235256E-2,-1.2771997E-1,9.672066E-2,1.2795699E-1,-1.2157812E-1,1.22332714E-1,-1.1799065E-1,-5.519287E-2,-1.4160144E-1],"split_indices":[2,2,1,3,1,3,1,4,0,1,3,3,0,3,2,3,0,1,3,0,0,1,4,3,3,0,4,0,3,3,3,0,1,1,1,3,0,3,0,2,4,0,0,0,0,3,2,0,0,0,3,3,4,0,3,2,0,2,0,0,0,4,4,3,3,3,3,3,3,3,0,0,1,1,4,0,3,0,3,3,4,1,1,1,0,4,3,0,0,0,0,0,0,0,0,0,0,0,0,0,0,0,0,0,0,0,0,0,0,0,0,0,0,0,0,0,0,0,0,0,0,0,0,0,0,0,0,0,0,0,0,0,0,0,0,0,0,0,0,0,0,0,0],"split_type":[0,0,0,0,0,0,0,0,0,0,0,0,0,0,0,0,0,0,0,0,0,0,0,0,0,0,0,0,0,0,0,0,0,0,0,0,0,0,0,0,0,0,0,0,0,0,0,0,0,0,0,0,0,0,0,0,0,0,0,0,0,0,0,0,0,0,0,0,0,0,0,0,0,0,0,0,0,0,0,0,0,0,0,0,0,0,0,0,0,0,0,0,0,0,0,0,0,0,0,0,0,0,0,0,0,0,0,0,0,0,0,0,0,0,0,0,0,0,0,0,0,0,0,0,0,0,0,0,0,0,0,0,0,0,0,0,0,0,0,0,0,0,0],"sum_hessian":[4.7891157E3,2.5641406E3,2.2249749E3,5.961156E2,1.9680251E3,1.4616275E2,2.0788123E3,8.367499E1,5.124406E2,1.947212E2,1.773304E3,1.0571383E2,4.0448925E1,1.137545E3,9.412672E2,8.2190956E1,1.484036E0,2.8836133E2,2.240793E2,3.0612629E1,1.6410858E2,6.405738E2,1.1327301E3,5.041636E1,5.5297466E1,8.761342E0,3.168758E1,8.065388E1,1.0568911E3,6.9748175E2,2.4378543E2,7.172103E1,1.0469923E1,2.3551016E2,5.2851154E1,2.1913348E2,4.945817E0,1.6050606E2,3.6025252E0,4.2372406E2,2.1684972E2,9.8661487E2,1.4611531E2,1.0272628E0,4.93891E1,1.3659219E1,4.163825E1,1.05543165E1,2.1133265E1,1.3473136E1,1.043418E3,1.5661588E2,5.408659E2,1.285493E2,1.15236115E2,2.8455849E0,7.624338E0,8.968699E1,1.4582318E2,7.471898E0,4.5379257E1,2.0162714E2,1.750634E1,1.3564288E2,2.4863165E1,5.9225693E1,3.6449838E2,1.6413654E2,5.2713177E1,1.9540648E2,7.912084E2,4.1905704E0,1.4192473E2,5.0294886E0,8.62973E0,1.1331247E0,4.0505123E1,4.3752127E2,6.058967E2,7.61784E1,8.043747E1,1.3759813E2,4.0326776E2,2.2731316E1,1.0581799E2,4.3347168E1,7.188895E1,1.1202995E0,1.7252854E0,6.734588E1,2.2341108E1,6.680087E0,1.391431E2,5.850041E0,1.6218573E0,3.698869E0,1.9792827E2,9.020796E0,8.485544E0,5.3925175E1,8.171771E1,6.3124256E0,1.855074E1,4.9137505E1,1.0088185E1,1.122848E1,3.532699E2,4.0091923E1,1.2404461E2,2.5990496E0,5.011413E1,1.0909284E2,8.6313644E1,1.3287936E2,6.58329E2,2.8419168E0,1.3486537E0,2.0722155E1,1.2120258E2,2.835455E0,2.1940334E0,5.1977773E0,3.4319532E0,3.916432E1,1.3407986E0,4.131727E0,4.3338953E2,1.3916106E2,4.6673566E2,2.8462524E1,4.7715874E1,3.4885113E1,4.555236E1,2.4748951E1,1.12849174E2,3.1413608E0,4.001264E2,3.5671847E0,1.9164131E1,3.976913E1,3.578038E0,2.20783E1,4.9810646E1],"tree_param":{"num_deleted":"0","num_feature":"6","num_nodes":"143","size_leaf_vector":"1"}},{"base_weights":[-3.0374127E-3,-3.6054012E-1,4.076338E-1,2.9707688E-1,-5.5675673E-1,-6.3908386E-1,4.7956687E-1,-1.2421999E0,5.455991E-1,5.3985447E-1,-6.7499846E-1,-1.1202868E0,6.108207E-1,1.1639998E0,4.246305E-1,-1.2573957E0,-2.618745E-2,1.05681516E-1,1.1211696E0,-1.2850422E-1,8.798222E-1,-1.0128319E0,-4.277314E-1,-1.1428609E0,-9.875554E-2,-1.22387014E-1,1.1392462E0,7.631331E-1,1.2487016E-1,-1.2060043E0,4.780216E-1,-1.3072102E-1,-8.3526766E-1,4.1503257E-1,-1.2932086E0,1.1838635E0,-1.3352342E-1,9.303769E-1,-1.0782448E-1,-1.1967063E0,-7.880989E-1,-9.6118695E-1,-2.6403034E-1,-1.3063799E-1,-9.4360155E-1,1.5745545E-2,-2.9792413E-2,7.2185504E-1,1.2469792E-1,1.196352E0,-3.7326586E-1,2.3321308E-1,-1.3665645E0,6.4028937E-1,2.6917943E-1,1.724255E-1,-1.20082416E-1,-3.139964E-1,8.733873E-1,-6.632034E-1,-1.3810001E-1,1.2346362E0,5.8306736E-1,1.0280354E0,3.7956238E-1,-8.3410877E-1,-1.3683159E0,-6.100773E-1,-1.3081547E0,-1.3251045E-1,-1.179639E0,9.9390864E-1,-3.3231804E-1,4.014089E-1,-1.2409142E0,8.734052E-1,-1.7435892E-2,7.998382E-2,1.3497461E-1,-1.5436576E-1,6.666944E-2,-1.04569726E-1,1.310308E-1,-1.4191109E-1,-6.222304E-1,8.078602E-1,5.2099985E-1,6.8794096E-1,-8.0049276E-1,-7.7237174E-2,8.3549045E-2,-6.560475E-2,7.058449E-2,1.2128478E-1,9.781247E-3,-1.2313304E-1,1.0365166E-1,5.599463E-2,1.2448726E-1,9.793395E-2,1.1559407E-2,6.988386E-2,1.2394488E-1,-1.2510458E-1,9.688927E-2,-1.2740397E-1,2.991704E-2,-1.385918E-1,1.8804833E-2,-1.3071303E-1,-4.2898048E-2,5.2054446E-2,-1.3735585E-1,9.362568E-2,-5.267472E-2,-1.2801693E-1,1.181696E-1,1.7517161E-1,-1.1474799E-1,-6.5886885E-2,1.1233269E-2,1.1335409E-1,-1.7122073E-2,-1.2816744E-1,-6.1851438E-2,1.0151376E-1,3.4381814E-2,5.427512E-2,-5.944243E-2,6.32198E-2,-1.5350485E-1,-1.4094947E-1,8.327118E-2,4.3270785E-2,1.10026E-1,-1.3199128E-1,7.096558E-2,-1.2533496E-1,-3.2829106E-2],"categories":[],"categories_nodes":[],"categories_segments":[],"categories_sizes":[],"default_left":[0,0,0,0,0,0,0,0,0,0,0,0,0,0,0,0,0,0,0,0,0,0,0,0,0,0,0,0,0,0,0,0,0,0,0,0,0,0,0,0,0,0,0,0,0,0,0,0,0,0,0,0,0,0,0,0,0,0,0,0,0,0,0,0,0,0,0,0,0,0,0,0,0,0,0,0,0,0,0,0,0,0,0,0,0,0,0,0,0,0,0,0,0,0,0,0,0,0,0,0,0,0,0,0,0,0,0,0,0,0,0,0,0,0,0,0,0,0,0,0,0,0,0,0,0,0,0,0,0,0,0,0,0,0,0,0,0,0,0],"id":7,"left_children":[1,3,5,7,9,11,13,15,17,19,21,23,25,27,29,31,-1,33,35,-1,37,39,41,43,45,-1,47,49,-1,51,53,-1,55,57,59,61,-1,63,-1,65,67,69,71,-1,73,-1,-1,75,-1,77,79,81,83,85,87,89,-1,91,93,95,-1,97,99,101,103,105,107,109,111,113,115,117,119,121,123,125,-1,-1,-1,-1,127,-1,-1,-1,129,131,133,135,137,-1,-1,-1,-1,-1,-1,-1,-1,-1,-1,-1,-1,-1,-1,-1,-1,-1,-1,-1,-1,-1,-1,-1,-1,-1,-1,-1,-1,-1,-1,-1,-1,-1,-1,-1,-1,-1,-1,-1,-1,-1,-1,-1,-1,-1,-1,-1,-1,-1,-1],"loss_changes":[6.816881E2,3.2046387E2,1.6300763E2,2.1914517E2,2.4830536E2,8.451625E1,7.555258E1,8.578949E-1,1.2455838E2,1.1693966E2,1.4378973E2,2.2159805E0,3.9584282E1,4.1300507E0,1.6371268E2,5.5280304E-1,0E0,1.2178892E2,3.4414917E1,0E0,1.6638191E1,2.917694E1,8.695114E1,1.9835968E0,2.141852E-1,0E0,4.9837112E-1,1.4568617E1,0E0,1.4112366E1,6.1338898E1,0E0,4.2684593E0,7.7198944E1,1.9039764E0,5.638092E0,0E0,7.921036E0,0E0,2.3684204E1,2.984018E1,4.222278E1,6.6087616E1,0E0,1.9730526E1,0E0,0E0,1.3414326E0,0E0,1.980629E-1,4.57192E0,1.0799418E1,1.2230377E0,1.998294E1,3.5683307E2,3.0317385E0,0E0,3.171907E1,3.7163246E1,9.155671E0,0E0,6.240845E-1,3.2465277E0,8.226898E0,2.5095835E1,6.555594E1,7.6364136E0,3.0797623E1,1.07043E1,2.1546001E1,4.546222E1,6.637853E1,1.0561025E2,4.1610246E0,2.1270752E-1,2.2557831E-1,0E0,0E0,0E0,0E0,2.6097496E0,0E0,0E0,0E0,7.0753574E0,2.4463745E1,3.016336E1,2.5882477E1,4.7539658E1,0E0,0E0,0E0,0E0,0E0,0E0,0E0,0E0,0E0,0E0,0E0,0E0,0E0,0E0,0E0,0E0,0E0,0E0,0E0,0E0,0E0,0E0,0E0,0E0,0E0,0E0,0E0,0E0,0E0,0E0,0E0,0E0,0E0,0E0,0E0,0E0,0E0,0E0,0E0,0E0,0E0,0E0,0E0,0E0,0E0,0E0,0E0,0E0,0E0,0E0],"parents":[2147483647,0,0,1,1,2,2,3,3,4,4,5,5,6,6,7,7,8,8,9,9,10,10,11,11,12,12,13,13,14,14,15,15,17,17,18,18,20,20,21,21,22,22,23,23,24,24,26,26,27,27,29,29,30,30,32,32,33,33,34,34,35,35,37,37,39,39,40,40,41,41,42,42,44,44,47,47,49,49,50,50,51,51,52,52,53,53,54,54,55,55,57,57,58,58,59,59,61,61,62,62,63,63,64,64,65,65,66,66,67,67,68,68,69,69,70,70,71,71,72,72,73,73,74,74,75,75,80,80,84,84,85,85,86,86,87,87,88,88],"right_children":[2,4,6,8,10,12,14,16,18,20,22,24,26,28,30,32,-1,34,36,-1,38,40,42,44,46,-1,48,50,-1,52,54,-1,56,58,60,62,-1,64,-1,66,68,70,72,-1,74,-1,-1,76,-1,78,80,82,84,86,88,90,-1,92,94,96,-1,98,100,102,104,106,108,110,112,114,116,118,120,122,124,126,-1,-1,-1,-1,128,-1,-1,-1,130,132,134,136,138,-1,-1,-1,-1,-1,-1,-1,-1,-1,-1,-1,-1,-1,-1,-1,-1,-1,-1,-1,-1,-1,-1,-1,-1,-1,-1,-1,-1,-1,-1,-1,-1,-1,-1,-1,-1,-1,-1,-1,-1,-1,-1,-1,-1,-1,-1,-1,-1,-1,-1],"split_conditions":[3.5E0,2.1E0,2.2E0,3.25275E1,1.9E0,4.03E1,2.86E1,1.16618E1,1.81E1,1.8E0,3.5750645E1,2.1E0,-2.2E0,2.54E1,3.17E1,3.1856468E1,-2.618745E-2,5.9E0,3.65E1,-1.2850422E-1,-2.9E0,7.6E0,2.411387E0,3.65E1,7.7200403E0,-1.22387014E-1,7.7200403E0,1.14E1,1.2487016E-1,3.9E0,3.5E0,-1.3072102E-1,3.5E0,4.3E0,6.1E0,3.59E1,-1.3352342E-1,3.36E1,-1.0782448E-1,3.1E0,8.3E0,3.69E1,3.61E1,-1.3063799E-1,3.66E1,1.5745545E-2,-2.9792413E-2,7.5813217E0,1.2469792E-1,1.1121205E1,1.20168705E1,3.0714205E1,3.16E1,3.51E1,3.7E0,1.7815855E0,-1.20082416E-1,2E0,4.7E0,8.9E0,-1.3810001E-1,7.1018786E0,7.5E0,3.1856468E1,3.65E1,7E-1,2.01E1,3.11E1,2.69E1,7.0802283E0,1.69E1,5.6E0,1.81E1,7.8598204E0,1.9E0,4.08E1,-1.7435892E-2,7.998382E-2,1.3497461E-1,-1.5436576E-1,1.2842224E1,-1.04569726E-1,1.310308E-1,-1.4191109E-1,7.351904E0,1.9E0,9.220144E0,5.5E0,4.03E1,-7.7237174E-2,8.3549045E-2,-6.560475E-2,7.058449E-2,1.2128478E-1,9.781247E-3,-1.2313304E-1,1.0365166E-1,5.599463E-2,1.2448726E-1,9.793395E-2,1.1559407E-2,6.988386E-2,1.2394488E-1,-1.2510458E-1,9.688927E-2,-1.2740397E-1,2.991704E-2,-1.385918E-1,1.8804833E-2,-1.3071303E-1,-4.2898048E-2,5.2054446E-2,-1.3735585E-1,9.362568E-2,-5.267472E-2,-1.2801693E-1,1.181696E-1,1.7517161E-1,-1.1474799E-1,-6.5886885E-2,1.1233269E-2,1.1335409E-1,-1.7122073E-2,-1.2816744E-1,-6.1851438E-2,1.0151376E-1,3.4381814E-2,5.427512E-2,-5.944243E-2,6.32198E-2,-1.5350485E-1,-1.4094947E-1,8.327118E-2,4.3270785E-2,1.10026E-1,-1.3199128E-1,7.096558E-2,-1.2533496E-1,-3.2829106E-2],"split_indices":[2,2,1,3,1,3,3,4,0,1,3,1,0,3,3,3,0,1,3,0,0,1,2,3,4,0,4,4,0,0,1,0,1,1,1,3,0,3,0,1,4,3,3,0,3,0,0,4,0,4,4,3,3,3,2,2,0,2,1,0,0,4,4,3,3,0,0,3,3,4,1,0,0,4,1,3,0,0,0,0,4,0,0,0,4,0,4,1,3,0,0,0,0,0,0,0,0,0,0,0,0,0,0,0,0,0,0,0,0,0,0,0,0,0,0,0,0,0,0,0,0,0,0,0,0,0,0,0,0,0,0,0,0,0,0,0,0,0,0],"split_type":[0,0,0,0,0,0,0,0,0,0,0,0,0,0,0,0,0,0,0,0,0,0,0,0,0,0,0,0,0,0,0,0,0,0,0,0,0,0,0,0,0,0,0,0,0,0,0,0,0,0,0,0,0,0,0,0,0,0,0,0,0,0,0,0,0,0,0,0,0,0,0,0,0,0,0,0,0,0,0,0,0,0,0,0,0,0,0,0,0,0,0,0,0,0,0,0,0,0,0,0,0,0,0,0,0,0,0,0,0,0,0,0,0,0,0,0,0,0,0,0,0,0,0,0,0,0,0,0,0,0,0,0,0,0,0,0,0,0,0],"sum_hessian":[4.6411426E3,2.481253E3,2.1598896E3,5.700903E2,1.9111627E3,1.383813E2,2.0215083E3,7.869254E1,4.9139777E2,1.8566655E2,1.7254962E3,9.998977E1,3.8391533E1,1.4870145E2,1.8728069E3,7.7213036E1,1.4795039E0,2.7919113E2,2.1220662E2,2.8720306E1,1.5694624E2,7.278969E2,9.975993E2,9.771173E1,2.2780344E0,8.290586E0,3.0100946E1,2.7685326E1,1.2101613E2,5.8691833E1,1.814115E3,6.718765E1,1.0025384E1,2.2920743E2,4.99837E1,2.0743048E2,4.776129E0,1.5350774E2,3.438516E0,3.9796265E2,3.2993423E2,2.3310484E2,7.6449445E2,5.0617302E1,4.709443E1,1.0879409E0,1.1900936E0,7.755224E0,2.2345722E1,2.0005903E1,7.679423E0,5.8451395E0,5.284669E1,1.0197308E3,7.943842E2,2.8093767E0,7.2160068E0,8.8600395E1,1.4060704E2,7.159606E0,4.2824097E1,1.9029395E2,1.7136538E1,1.296539E2,2.385383E1,1.2972484E2,2.6823782E2,2.4741435E2,8.25199E1,4.896552E1,1.8413933E2,3.8666046E1,7.2582837E2,8.462205E0,3.8632225E1,6.6552663E0,1.0999582E0,7.313986E0,1.2691916E1,1.412587E0,6.266836E0,2.6855493E0,3.1595902E0,4.85152E1,4.33149E0,4.2164984E2,5.98081E2,5.711457E2,2.2323856E2,1.0905738E0,1.7188029E0,6.661476E1,2.198563E1,9.740857E1,4.319847E1,5.572561E0,1.5870451E0,3.6764655E0,1.8661748E2,8.681965E0,8.454573E0,5.2386765E1,7.7267136E1,6.034433E0,1.7819397E1,9.335923E1,3.63656E1,2.6534634E2,2.8914697E0,4.9740856E1,1.976735E2,2.6091337E0,7.991076E1,1.2824287E1,3.614123E1,1.7705916E2,7.0801706E0,2.8693714E1,9.972333E0,4.1821222E2,3.0761618E2,3.2839704E0,5.178235E0,3.526361E1,3.3686123E0,4.526895E0,2.1283712E0,3.7472746E0,2.5195615E0,1.9538538E0,2.3776364E0,4.055845E0,4.17594E2,5.204933E2,7.758767E1,5.471192E0,5.6567444E2,1.1310904E2,1.1012952E2],"tree_param":{"num_deleted":"0","num_feature":"6","num_nodes":"139","size_leaf_vector":"1"}},{"base_weights":[-3.3363292E-3,-3.25306E-1,3.9187634E-1,2.8059253E-1,-4.9573717E-1,-5.3892094E-1,4.49056E-1,-1.2001543E0,5.146209E-1,5.1143074E-1,-5.970865E-1,-1.0616987E0,7.8673196E-1,1.1151496E0,3.95477E-1,-1.21598E0,-2.4674814E-2,6.813164E-1,-8.919978E-1,-1.2436768E-1,8.320774E-1,-6.597127E-1,3.172381E-1,-2.2548208E-1,-1.0945623E0,-1.0730996E-1,1.0912565E0,7.127238E-1,1.2031626E0,-1.1516129E0,4.4649222E-1,-1.2664327E-1,-7.9708374E-1,2.0762733E-1,1.0375859E0,-1.1572901E0,2.8923035E-1,8.805291E-1,-1.0353976E-1,-1.0367479E0,-5.5093354E-1,-1.1275446E0,1.1820582E0,5.1530417E-2,-9.073806E-2,-1.2669745E-1,-9.138602E-1,7.354814E-1,1.2333633E-1,1.1380053E0,-3.5290536E-1,8.4185696E-1,1.23062365E-1,2.19834E-1,-1.3080066E0,5.884275E-1,2.4832149E-1,1.5842456E-1,-1.1560636E-1,7.6190716E-1,-1.5127276E0,1.078261E0,-1.11823075E-1,-5.6980234E-1,-1.4113425E-1,-1.1506529E-1,8.563281E-2,9.0354335E-1,-1.16133325E-1,-1.2167063E0,-7.964306E-1,-4.1292384E-1,-1.037944E0,-4.6840236E-1,-1.4568125E-1,1.874318E0,-5.743753E-1,3.77437E-1,-1.2329836E0,8.4640867E-1,3.608177E-1,7.508632E-2,1.2911062E-1,-1.4249688E-1,5.997754E-2,1.1713474E-1,-7.958212E-2,-1.00253895E-1,1.2353169E-1,-1.3622442E-1,-5.816085E-1,7.5927216E-1,4.6861482E-1,6.8517286E-1,-7.2907203E-1,-5.895887E-2,9.541502E-2,-8.118255E-3,1.313531E-1,-1.8235008E-1,-1.2774752E-1,1.7692665E-2,1.1266474E-1,7.235456E-4,-1.1918689E-1,-9.7097844E-2,9.26074E-2,1.6930657E-2,-1.23012446E-1,-5.9478458E-2,-1.24254204E-1,-5.853125E-2,3.355715E-2,-1.4136595E-1,-7.132372E-2,-1.2404289E-1,2.0898513E-1,1.3780867E-2,1.922944E-1,-1.5288752E-1,1.6364893E-1,-8.720623E-2,6.648513E-2,-1.2553994E-1,-3.5361703E-2,1.05007745E-1,-2.0950027E-2,-4.142941E-2,8.997748E-2,5.0798494E-2,-5.450651E-2,6.0020443E-2,-1.4268363E-1,-2.3863219E-2,8.07958E-2,-9.865691E-2,4.9940377E-2,-3.166374E-2,8.050611E-2,-1.1684366E-1,-2.8358897E-2],"categories":[],"categories_nodes":[],"categories_segments":[],"categories_sizes":[],"default_left":[0,0,0,0,0,0,0,0,0,0,0,0,0,0,0,0,0,0,0,0,0,0,0,0,0,0,0,0,0,0,0,0,0,0,0,0,0,0,0,0,0,0,0,0,0,0,0,0,0,0,0,0,0,0,0,0,0,0,0,0,0,0,0,0,0,0,0,0,0,0,0,0,0,0,0,0,0,0,0,0,0,0,0,0,0,0,0,0,0,0,0,0,0,0,0,0,0,0,0,0,0,0,0,0,0,0,0,0,0,0,0,0,0,0,0,0,0,0,0,0,0,0,0,0,0,0,0,0,0,0,0,0,0,0,0,0,0,0,0,0,0],"id":8,"left_children":[1,3,5,7,9,11,13,15,17,19,21,23,25,27,29,31,-1,33,35,-1,37,39,41,43,45,-1,47,49,51,53,55,-1,57,59,61,63,65,67,-1,69,71,73,75,-1,-1,-1,77,79,-1,81,83,85,-1,87,89,91,93,95,-1,97,99,101,-1,103,-1,-1,-1,105,-1,107,109,111,113,115,-1,117,119,121,123,125,127,-1,-1,-1,129,-1,-1,-1,-1,-1,131,133,135,137,139,-1,-1,-1,-1,-1,-1,-1,-1,-1,-1,-1,-1,-1,-1,-1,-1,-1,-1,-1,-1,-1,-1,-1,-1,-1,-1,-1,-1,-1,-1,-1,-1,-1,-1,-1,-1,-1,-1,-1,-1,-1,-1,-1,-1,-1,-1],"loss_changes":[5.729336E2,2.563559E2,1.078244E2,1.8959927E2,1.9800977E2,8.222513E1,6.754306E1,8.2746124E-1,1.11190926E2,1.0099371E2,1.0100049E2,2.0795364E0,2.0308256E1,4.1460724E0,1.3978958E2,5.386963E-1,0E0,7.103793E1,1.6129124E1,0E0,1.4554771E1,6.70072E1,1.4316324E2,2.7207685E0,1.3717194E0,0E0,5.8592224E-1,1.3002736E1,9.968567E-2,1.2429832E1,4.7924835E1,0E0,3.809619E0,1.7516818E2,2.2314362E1,5.368595E0,9.186588E0,7.981018E0,0E0,1.49375E1,8.566354E1,8.6535225E0,8.8009186E1,0E0,0E0,0E0,1.8280087E1,1.4786291E-1,0E0,2.2254181E-1,3.934072E0,7.00312E0,0E0,9.494313E0,1.2154388E0,2.0012878E1,3.0576935E2,2.8045964E0,0E0,6.460549E1,9.4615936E-1,1.0127014E1,0E0,5.092383E0,0E0,0E0,0E0,7.0834274E0,0E0,4.0844116E0,1.3688736E1,1.2919345E2,3.3416138E1,3.3805218E1,0E0,4.08519E0,4.6770775E1,3.931253E0,2.4398422E-1,1.869832E0,2.141706E0,0E0,0E0,0E0,2.2385197E0,0E0,0E0,0E0,0E0,0E0,6.136272E0,2.0042877E1,2.6815216E1,5.9662277E1,4.298957E1,0E0,0E0,0E0,0E0,0E0,0E0,0E0,0E0,0E0,0E0,0E0,0E0,0E0,0E0,0E0,0E0,0E0,0E0,0E0,0E0,0E0,0E0,0E0,0E0,0E0,0E0,0E0,0E0,0E0,0E0,0E0,0E0,0E0,0E0,0E0,0E0,0E0,0E0,0E0,0E0,0E0,0E0,0E0,0E0,0E0,0E0],"parents":[2147483647,0,0,1,1,2,2,3,3,4,4,5,5,6,6,7,7,8,8,9,9,10,10,11,11,12,12,13,13,14,14,15,15,17,17,18,18,20,20,21,21,22,22,23,23,24,24,26,26,27,27,28,28,29,29,30,30,32,32,33,33,34,34,35,35,36,36,37,37,39,39,40,40,41,41,42,42,46,46,47,47,49,49,50,50,51,51,53,53,54,54,55,55,56,56,57,57,59,59,60,60,61,61,63,63,67,67,69,69,70,70,71,71,72,72,73,73,75,75,76,76,77,77,78,78,79,79,80,80,84,84,90,90,91,91,92,92,93,93,94,94],"right_children":[2,4,6,8,10,12,14,16,18,20,22,24,26,28,30,32,-1,34,36,-1,38,40,42,44,46,-1,48,50,52,54,56,-1,58,60,62,64,66,68,-1,70,72,74,76,-1,-1,-1,78,80,-1,82,84,86,-1,88,90,92,94,96,-1,98,100,102,-1,104,-1,-1,-1,106,-1,108,110,112,114,116,-1,118,120,122,124,126,128,-1,-1,-1,130,-1,-1,-1,-1,-1,132,134,136,138,140,-1,-1,-1,-1,-1,-1,-1,-1,-1,-1,-1,-1,-1,-1,-1,-1,-1,-1,-1,-1,-1,-1,-1,-1,-1,-1,-1,-1,-1,-1,-1,-1,-1,-1,-1,-1,-1,-1,-1,-1,-1,-1,-1,-1,-1,-1],"split_conditions":[3.6E0,2.1E0,2.2E0,3.25275E1,1.9E0,4.03E1,2.86E1,1.16618E1,3.8464825E1,1.8E0,4.35E1,4E0,-2.2E0,2.54E1,3.17E1,3.1856468E1,-2.4674814E-2,1.19E1,4.35E1,-1.2436768E-1,-2.9E0,3.293157E1,1.64E1,3.7E1,3.65E1,-1.0730996E-1,7.9114094E0,1.14E1,7.1018786E0,3.9E0,2.8E0,-1.2664327E-1,3.5E0,1.9E0,1E1,3.92E1,7.608392E0,3.89E1,-1.0353976E-1,3E0,4.01E1,4.3E0,1.93E1,5.1530417E-2,-9.073806E-2,-1.2669745E-1,3.66E1,7.593168E0,1.2333633E-1,1.1121205E1,1.20168705E1,2.78E1,1.23062365E-1,3.0714205E1,3.16E1,3.51E1,3.7E0,1.9E0,-1.1560636E-1,8E-1,5.9E0,4.3E0,-1.11823075E-1,7.6E0,-1.4113425E-1,-1.1506529E-1,8.563281E-2,2.97E1,-1.16133325E-1,2E0,8E0,1.29E1,1.1E1,3E0,-1.4568125E-1,7.0313582E0,1.69E1,-2.2E0,4.01E1,4.09E1,4.08E1,7.508632E-2,1.2911062E-1,-1.4249688E-1,1.2842224E1,1.1713474E-1,-7.958212E-2,-1.00253895E-1,1.2353169E-1,-1.3622442E-1,7.351904E0,7.0313582E0,3.57E1,3.3279175E1,4.03E1,-5.895887E-2,9.541502E-2,-8.118255E-3,1.313531E-1,-1.8235008E-1,-1.2774752E-1,1.7692665E-2,1.1266474E-1,7.235456E-4,-1.1918689E-1,-9.7097844E-2,9.26074E-2,1.6930657E-2,-1.23012446E-1,-5.9478458E-2,-1.24254204E-1,-5.853125E-2,3.355715E-2,-1.4136595E-1,-7.132372E-2,-1.2404289E-1,2.0898513E-1,1.3780867E-2,1.922944E-1,-1.5288752E-1,1.6364893E-1,-8.720623E-2,6.648513E-2,-1.2553994E-1,-3.5361703E-2,1.05007745E-1,-2.0950027E-2,-4.142941E-2,8.997748E-2,5.0798494E-2,-5.450651E-2,6.0020443E-2,-1.4268363E-1,-2.3863219E-2,8.07958E-2,-9.865691E-2,4.9940377E-2,-3.166374E-2,8.050611E-2,-1.1684366E-1,-2.8358897E-2],"split_indices":[2,2,1,3,1,3,3,4,3,1,3,2,0,3,3,3,0,0,3,0,0,3,0,3,3,0,4,4,4,0,1,0,1,0,1,3,4,3,0,2,3,1,0,0,0,0,3,4,0,4,4,3,0,3,3,3,2,2,0,0,1,1,0,4,0,0,0,3,0,1,4,1,0,0,0,4,1,0,3,3,3,0,0,0,4,0,0,0,0,0,4,4,3,3,3,0,0,0,0,0,0,0,0,0,0,0,0,0,0,0,0,0,0,0,0,0,0,0,0,0,0,0,0,0,0,0,0,0,0,0,0,0,0,0,0,0,0,0,0,0,0],"split_type":[0,0,0,0,0,0,0,0,0,0,0,0,0,0,0,0,0,0,0,0,0,0,0,0,0,0,0,0,0,0,0,0,0,0,0,0,0,0,0,0,0,0,0,0,0,0,0,0,0,0,0,0,0,0,0,0,0,0,0,0,0,0,0,0,0,0,0,0,0,0,0,0,0,0,0,0,0,0,0,0,0,0,0,0,0,0,0,0,0,0,0,0,0,0,0,0,0,0,0,0,0,0,0,0,0,0,0,0,0,0,0,0,0,0,0,0,0,0,0,0,0,0,0,0,0,0,0,0,0,0,0,0,0,0,0,0,0,0,0,0,0],"sum_hessian":[4.500547E3,2.4801824E3,2.0203645E3,5.4434375E2,1.9358387E3,1.16441986E2,1.9039225E3,7.3727295E1,4.7061646E2,1.7661961E2,1.7592191E3,8.3652374E1,3.2789608E1,1.4027026E2,1.7636522E3,7.225256E1,1.4747326E0,4.2121478E2,4.9401657E1,2.6838175E1,1.4978143E2,1.6467073E3,1.1251181E2,3.4605188E0,8.019186E1,4.258386E0,2.8531223E1,2.680525E1,1.1346501E2,5.5611187E1,1.7080411E3,6.268002E1,9.572545E0,1.8149086E2,2.3972392E2,4.035793E1,9.04373E0,1.4650874E2,3.2726839E0,3.6680542E2,1.2799019E3,4.2015774E1,7.049604E1,1.7757392E0,1.6847798E0,3.7960983E1,4.2230873E1,9.906105E0,1.8625118E1,1.9110521E1,7.694729E0,1.0250826E1,1.0321419E2,5.650985E0,4.99602E1,9.9408276E2,7.139583E2,2.7667851E0,6.80576E0,1.376868E2,4.3804077E1,2.3577524E2,3.948685E0,1.3162628E1,2.71953E1,2.264657E0,6.7790723E0,1.4542711E2,1.0816449E0,2.0741937E2,1.5938605E2,9.987286E2,2.811733E2,1.4803682E1,2.721209E1,5.0518257E1,1.9977783E1,8.332324E0,3.3898552E1,6.671691E0,3.2344136E0,7.0890346E0,1.2021487E1,1.457922E0,6.236807E0,8.770924E0,1.4799027E0,2.5700593E0,3.0809255E0,4.5674515E1,4.285687E0,4.0757358E2,5.865092E2,4.9362772E2,2.203306E2,1.5596801E0,1.2071052E0,5.4793873E1,8.289292E1,1.5964031E1,2.7840044E1,1.2249504E1,2.2352573E2,7.341198E0,5.8214307E0,1.2272315E0,1.4419987E2,1.8774168E0,2.0554196E2,1.11376305E2,4.8009743E1,8.1194476E2,1.8678386E2,1.2879361E2,1.523797E2,1.1767598E1,3.0360844E0,1.4805245E0,4.903773E1,1.4169036E1,5.808748E0,1.177803E0,7.1545205E0,3.2638935E1,1.2596152E0,5.5975347E0,1.0741565E0,1.4214423E0,1.8129714E0,3.675601E0,2.5612059E0,1.907907E0,2.37778E0,1.8778244E1,3.8879532E2,1.150911E1,5.750001E2,5.258401E1,4.410437E2,1.1011002E2,1.1022057E2],"tree_param":{"num_deleted":"0","num_feature":"6","num_nodes":"141","size_leaf_vector":"1"}},{"base_weights":[-3.6483826E-3,-3.1524193E-1,3.5093457E-1,2.6516733E-1,-4.8177317E-1,-5.914252E-1,4.1177058E-1,-1.1629722E0,4.864495E-1,4.8074943E-1,-5.8124745E-1,-1.038676E0,5.632758E-1,1.0717647E0,3.6240584E-1,-1.1795679E0,-2.3253204E-2,9.0927553E-1,-2.1903474E-2,-1.20778285E-1,7.808718E-1,-9.6450377E-1,-3.804502E-1,-1.0629973E0,-3.9481197E-2,-1.1357006E-1,1.0483541E0,6.67582E-1,1.1632475E0,-1.1047407E0,4.0744114E-1,-1.2314091E-1,-7.594474E-1,1.0015228E0,-9.988396E-1,-1.1438133E0,3.275693E-1,8.269356E-1,-9.9652484E-2,-1.1678499E0,-5.890274E-1,-1.6015097E-1,-7.399124E-1,-1.2279641E-1,-8.642839E-1,1.885955E-2,-2.4226433E-2,4.4596693E-1,1.11990765E-1,1.0860324E0,-3.341434E-1,7.992145E-1,1.191526E-1,2.0791535E-1,-1.2577734E0,5.4293567E-1,2.3135263E-1,1.5419176E-1,-1.11616924E-1,-1.3017279E-1,1.0651962E0,-3.9380962E-1,-1.1410695E-1,1.7166266E-1,-1.4401375E-1,5.477546E-1,-5.613284E-1,9.269001E-1,2.8265274E-1,-6.0884815E-1,-1.26178E0,5.247628E-1,-6.8380564E-1,-5.6777316E-1,3.611752E-1,5.631553E-1,-9.612944E-1,3.4381595E-1,-1.1561959E0,8.712587E-2,-1.18804965E-2,7.054035E-2,1.2407675E-1,-1.3245836E-1,5.4106757E-2,1.1333348E-1,-7.310409E-2,-9.632715E-2,1.1705871E-1,-1.313863E-1,-5.459727E-1,4.964451E-1,9.263875E-1,5.900748E-1,-6.939816E-1,-7.2216466E-2,7.609876E-2,-6.628083E-2,1.1000126E-1,-6.6787325E-2,-4.099522E-3,8.132631E-2,-1.2870362E-1,2.1976622E-2,9.3111336E-2,-9.119657E-2,4.05571E-2,5.886662E-2,1.1531414E-1,-1.2362986E-1,8.7262966E-2,-8.606769E-2,4.6830945E-2,-5.979402E-2,-1.281616E-1,-1.24886654E-1,1.2637568E-1,-4.5563724E-2,-1.122567E-1,-4.1038554E-2,-1.2556265E-1,2.2793095E-1,1.3398424E-2,-7.3762216E-2,1.117435E-1,-1.191005E-1,-6.670746E-2,1.0551943E-1,-1.8536378E-2,-1.22100055E-1,-6.34395E-2,4.755489E-2,-5.006667E-2,5.7022244E-2,-1.3351804E-1,5.158502E-2,-1.4145456E-1,9.694789E-2,-1.6996346E-1,1.4205796E-2,6.972257E-2,-1.1462777E-1,-2.6949588E-2],"categories":[],"categories_nodes":[],"categories_segments":[],"categories_sizes":[],"default_left":[0,0,0,0,0,0,0,0,0,0,0,0,0,0,0,0,0,0,0,0,0,0,0,0,0,0,0,0,0,0,0,0,0,0,0,0,0,0,0,0,0,0,0,0,0,0,0,0,0,0,0,0,0,0,0,0,0,0,0,0,0,0,0,0,0,0,0,0,0,0,0,0,0,0,0,0,0,0,0,0,0,0,0,0,0,0,0,0,0,0,0,0,0,0,0,0,0,0,0,0,0,0,0,0,0,0,0,0,0,0,0,0,0,0,0,0,0,0,0,0,0,0,0,0,0,0,0,0,0,0,0,0,0,0,0,0,0,0,0,0,0,0,0],"id":9,"left_children":[1,3,5,7,9,11,13,15,17,19,21,23,25,27,29,31,-1,33,35,-1,37,39,41,43,45,-1,47,49,51,53,55,-1,57,59,61,63,65,67,-1,69,71,73,75,-1,77,-1,-1,79,-1,81,83,85,-1,87,89,91,93,95,-1,-1,97,99,-1,101,-1,103,105,107,109,111,113,115,117,119,121,123,125,127,129,-1,-1,-1,-1,-1,131,-1,-1,-1,-1,-1,133,135,137,139,141,-1,-1,-1,-1,-1,-1,-1,-1,-1,-1,-1,-1,-1,-1,-1,-1,-1,-1,-1,-1,-1,-1,-1,-1,-1,-1,-1,-1,-1,-1,-1,-1,-1,-1,-1,-1,-1,-1,-1,-1,-1,-1,-1,-1,-1,-1,-1,-1],"loss_changes":[4.8219614E2,2.2465799E2,1.1727292E2,1.6444052E2,1.7314172E2,6.4728325E1,6.2105682E1,8.044815E-1,9.667896E1,8.69191E1,1.2559332E2,2.142212E0,3.0302933E1,4.140274E0,1.1846866E2,5.543747E-1,0E0,4.4216644E1,8.081747E1,0E0,1.2667854E1,4.2226868E1,8.5065186E1,1.8137207E0,1.9250138E-1,0E0,7.0739555E-1,1.16341505E1,1.5008545E-1,1.1001457E1,4.1239044E1,0E0,3.4708738E0,3.5806427E1,5.680418E-1,1.9329628E1,3.1078423E1,7.4396744E0,0E0,1.8322845E1,2.1416313E1,1.4220618E2,1.18375046E2,0E0,1.5617985E1,0E0,0E0,1.2166674E0,0E0,2.5567627E-1,3.412375E0,6.327967E0,0E0,8.388934E0,1.2000046E0,1.699347E1,2.5124191E2,2.528163E0,0E0,0E0,1.4502472E1,3.378641E-1,0E0,1.0305974E1,0E0,1.5702564E1,1.1119229E1,8.4387665E0,2.2050934E1,1.5115677E1,3.3203125E0,2.2823698E1,1.793589E1,4.0125183E1,1.2774032E2,4.4047134E1,2.2828033E1,3.647555E0,4.0856934E-1,0E0,0E0,0E0,0E0,0E0,1.9219161E0,0E0,0E0,0E0,0E0,0E0,5.3587036E0,3.3189774E1,1.3496857E1,2.6068466E1,4.0310272E1,0E0,0E0,0E0,0E0,0E0,0E0,0E0,0E0,0E0,0E0,0E0,0E0,0E0,0E0,0E0,0E0,0E0,0E0,0E0,0E0,0E0,0E0,0E0,0E0,0E0,0E0,0E0,0E0,0E0,0E0,0E0,0E0,0E0,0E0,0E0,0E0,0E0,0E0,0E0,0E0,0E0,0E0,0E0,0E0,0E0,0E0,0E0,0E0],"parents":[2147483647,0,0,1,1,2,2,3,3,4,4,5,5,6,6,7,7,8,8,9,9,10,10,11,11,12,12,13,13,14,14,15,15,17,17,18,18,20,20,21,21,22,22,23,23,24,24,26,26,27,27,28,28,29,29,30,30,32,32,33,33,34,34,35,35,36,36,37,37,39,39,40,40,41,41,42,42,44,44,47,47,49,49,50,50,51,51,53,53,54,54,55,55,56,56,57,57,60,60,61,61,63,63,65,65,66,66,67,67,68,68,69,69,70,70,71,71,72,72,73,73,74,74,75,75,76,76,77,77,78,78,84,84,90,90,91,91,92,92,93,93,94,94],"right_children":[2,4,6,8,10,12,14,16,18,20,22,24,26,28,30,32,-1,34,36,-1,38,40,42,44,46,-1,48,50,52,54,56,-1,58,60,62,64,66,68,-1,70,72,74,76,-1,78,-1,-1,80,-1,82,84,86,-1,88,90,92,94,96,-1,-1,98,100,-1,102,-1,104,106,108,110,112,114,116,118,120,122,124,126,128,130,-1,-1,-1,-1,-1,132,-1,-1,-1,-1,-1,134,136,138,140,142,-1,-1,-1,-1,-1,-1,-1,-1,-1,-1,-1,-1,-1,-1,-1,-1,-1,-1,-1,-1,-1,-1,-1,-1,-1,-1,-1,-1,-1,-1,-1,-1,-1,-1,-1,-1,-1,-1,-1,-1,-1,-1,-1,-1,-1,-1,-1,-1],"split_conditions":[3.5E0,2.1E0,2.2E0,3.25275E1,1.9E0,4.03E1,2.86E1,1.16618E1,3.51E1,1.8E0,3.4819096E1,2.1E0,-2.2E0,2.54E1,3.17E1,3.1856468E1,-2.3253204E-2,9.3E0,1.7815855E0,-1.20778285E-1,-2.9E0,8.6E0,7.7E0,3.65E1,7.7200403E0,-1.1357006E-1,7.309135E0,1.14E1,7.1018786E0,3.9E0,3.5E0,-1.2314091E-1,3.5E0,-6E-1,7.1E0,-2.9E0,3.8464825E1,3.36E1,-9.9652484E-2,2.3E0,8.9E0,7.309135E0,2.8E0,-1.2279641E-1,3.66E1,1.885955E-2,-2.4226433E-2,7.1E0,1.11990765E-1,1.1121205E1,1.20168705E1,2.78E1,1.191526E-1,3.0714205E1,3.16E1,9.220144E0,3.7E0,1.7815855E0,-1.11616924E-1,-1.3017279E-1,7.1018786E0,3.2667385E1,-1.1410695E-1,7.364422E0,-1.4401375E-1,3.687494E1,4.35E1,3.1856468E1,3.65E1,3.4256992E1,2.69E1,7.9114094E0,8E0,7.3E0,7.4E0,7E-1,2.9E0,7.8598204E0,1.8E0,8.712587E-2,-1.18804965E-2,7.054035E-2,1.2407675E-1,-1.3245836E-1,1.2842224E1,1.1333348E-1,-7.310409E-2,-9.632715E-2,1.1705871E-1,-1.313863E-1,7.351904E0,9.2E0,3.900409E1,7.309135E0,4.03E1,-7.2216466E-2,7.609876E-2,-6.628083E-2,1.1000126E-1,-6.6787325E-2,-4.099522E-3,8.132631E-2,-1.2870362E-1,2.1976622E-2,9.3111336E-2,-9.119657E-2,4.05571E-2,5.886662E-2,1.1531414E-1,-1.2362986E-1,8.7262966E-2,-8.606769E-2,4.6830945E-2,-5.979402E-2,-1.281616E-1,-1.24886654E-1,1.2637568E-1,-4.5563724E-2,-1.122567E-1,-4.1038554E-2,-1.2556265E-1,2.2793095E-1,1.3398424E-2,-7.3762216E-2,1.117435E-1,-1.191005E-1,-6.670746E-2,1.0551943E-1,-1.8536378E-2,-1.22100055E-1,-6.34395E-2,4.755489E-2,-5.006667E-2,5.7022244E-2,-1.3351804E-1,5.158502E-2,-1.4145456E-1,9.694789E-2,-1.6996346E-1,1.4205796E-2,6.972257E-2,-1.1462777E-1,-2.6949588E-2],"split_indices":[2,2,1,3,1,3,3,4,3,1,3,1,0,3,3,3,0,1,2,0,0,1,4,3,4,0,4,4,4,0,1,0,1,0,4,0,3,3,0,2,1,4,1,0,3,0,0,4,0,4,4,3,0,3,3,4,2,2,0,0,4,3,0,4,0,3,3,3,3,3,3,4,4,4,4,0,2,4,1,0,0,0,0,0,4,0,0,0,0,0,4,4,3,4,3,0,0,0,0,0,0,0,0,0,0,0,0,0,0,0,0,0,0,0,0,0,0,0,0,0,0,0,0,0,0,0,0,0,0,0,0,0,0,0,0,0,0,0,0,0,0,0,0],"split_type":[0,0,0,0,0,0,0,0,0,0,0,0,0,0,0,0,0,0,0,0,0,0,0,0,0,0,0,0,0,0,0,0,0,0,0,0,0,0,0,0,0,0,0,0,0,0,0,0,0,0,0,0,0,0,0,0,0,0,0,0,0,0,0,0,0,0,0,0,0,0,0,0,0,0,0,0,0,0,0,0,0,0,0,0,0,0,0,0,0,0,0,0,0,0,0,0,0,0,0,0,0,0,0,0,0,0,0,0,0,0,0,0,0,0,0,0,0,0,0,0,0,0,0,0,0,0,0,0,0,0,0,0,0,0,0,0,0,0,0,0,0,0,0],"sum_hessian":[4.362327E3,2.3219763E3,2.0403506E3,5.1755524E2,1.8044211E3,1.23202484E2,1.9171482E3,6.886295E1,4.4869226E2,1.6865604E2,1.6357651E3,8.887786E1,3.4324623E1,1.3197426E2,1.7851738E3,6.739316E1,1.4697977E0,2.4452133E2,2.0417093E2,2.4996693E1,1.4365935E2,5.610674E2,1.0746976E3,8.670357E1,2.1742935E0,7.3255987E0,2.6999025E1,2.5889318E1,1.0608494E2,5.2464676E1,1.7327092E3,5.8271595E1,9.121565E0,2.3369838E2,1.0822959E1,4.795343E1,1.562175E2,1.405515E2,3.107845E0,3.6258987E2,1.9847751E2,6.672276E2,4.074701E2,4.4544384E1,4.215918E1,1.0562545E0,1.118039E0,3.6344345E0,2.3364592E1,1.8201748E1,7.6875715E0,9.756048E0,9.632889E1,5.4403944E0,4.702428E1,9.780486E2,7.5466064E2,2.7207944E0,6.40077E0,5.763722E0,2.2793465E2,2.7773314E0,8.045628E0,8.893426E0,3.9060005E1,1.2551137E2,3.0706135E1,1.18148964E2,2.2402544E1,5.3238194E1,3.0935168E2,1.5209212E1,1.832683E2,3.7439838E2,2.9282922E2,5.8948994E1,3.4852112E2,8.169847E0,3.3989334E1,1.763664E0,1.8707703E0,6.8674555E0,1.1334292E1,1.4857345E0,6.201837E0,8.220535E0,1.5355132E0,2.4541056E0,2.986289E0,4.2805412E1,4.21887E0,8.743367E2,1.0371191E2,5.440949E2,2.1056572E2,1.0353609E0,1.6854334E0,4.145556E0,2.237891E2,1.0605314E0,1.7168E0,6.483964E0,2.4094617E0,6.848837E1,5.7022995E1,2.2575977E1,8.130157E0,4.8797672E1,6.935129E1,5.9606876E0,1.6441856E1,4.3313015E1,9.9251795E0,9.878952E0,2.9947275E2,4.270295E0,1.0938917E1,1.2191004E2,6.1358253E1,3.0598303E2,6.841532E1,3.0054203E1,2.62775E2,1.7514763E1,4.143423E1,1.9400484E2,1.5451628E2,3.0609636E0,5.108883E0,2.9042458E1,4.9468784E0,3.6055958E0,2.5962412E0,1.8623621E0,2.356508E0,8.662702E2,8.066454E0,1.02658165E2,1.0537397E0,1.0546266E2,4.3863226E2,1.01120186E2,1.09445526E2],"tree_param":{"num_deleted":"0","num_feature":"6","num_nodes":"143","size_leaf_vector":"1"}},{"base_weights":[-4.100799E-3,-2.8496912E-1,3.3794218E-1,2.4892737E-1,-4.2947993E-1,-4.9946758E-1,3.860211E-1,-1.1305568E0,4.5670727E-1,4.5643452E-1,-5.147205E-1,-9.8849857E-1,7.244296E-1,1.0325079E0,3.377517E-1,-1.1480757E0,-2.1916404E-2,6.9632396E-2,9.924345E-1,-1.1762997E-1,7.3999816E-1,-5.7273376E-1,3.098848E-1,-1.6220795E-1,-1.0245955E0,-9.965062E-2,1.0069797E0,6.2668365E-1,1.1275861E0,-1.0638239E0,3.8077116E-1,-1.2010459E-1,-7.283194E-1,3.377401E-1,-1.1953064E0,1.056081E0,-1.2926011E-1,7.842727E-1,-9.609229E-2,-9.428308E-1,-4.725913E-1,-1.0440308E0,1.0722414E0,5.4218143E-2,-8.468005E-2,-1.1992072E-1,-8.4432626E-1,6.426299E-1,1.16508044E-1,1.0390621E0,-3.168182E-1,7.6020426E-1,1.1567706E-1,1.9717503E-1,-1.2141446E0,-1.6834637E-2,4.3135118E-1,1.4157955E-1,-1.0801884E-1,-2.5944892E-1,7.4778646E-1,-5.15805E-1,-1.294762E-1,1.1018398E0,2.8059554E-1,8.0851364E-1,-1.1400515E-1,-1.1383343E0,-6.953019E-1,-3.41716E-1,-9.4406885E-1,-3.9367592E-1,-1.372802E-1,1.6645888E0,-4.9719903E-1,3.2445243E-1,-1.1630443E0,7.623223E-1,2.681589E-1,6.6296555E-2,1.1969427E-1,-1.2386524E-1,4.8935335E-2,1.0991607E-1,-6.7286536E-2,-9.272467E-2,1.1139299E-1,-1.2722395E-1,-5.143986E-1,-2.0682262E-1,1.0382924E-1,1.4586641E-1,3.9715675E-1,-5.520434E-2,8.776415E-2,-1.1300899E-1,7.3874593E-3,-1.2360227E-1,8.642529E-2,-1.12622514E-1,1.0269677E-1,1.1564448E-1,8.701847E-2,-6.134386E-2,7.965727E-2,-9.528585E-2,8.3191656E-2,-7.4121475E-2,-1.20803595E-1,-4.979374E-2,-1.1582215E-1,-4.988728E-2,3.1516623E-2,-1.2697499E-1,-5.4238733E-2,-1.18182994E-1,1.9398855E-1,1.5435395E-2,1.7057781E-1,-1.4127725E-1,1.4669073E-1,-8.280188E-2,5.9663422E-2,-1.1888345E-1,-2.8360197E-2,9.701701E-2,-2.3201639E-2,-4.63407E-2,8.239696E-2,4.452259E-2,-4.6055432E-2,5.4204434E-2,-1.2563662E-1,2.232928E-2,-1.6908284E-1,-2.7035339E-2,4.37002E-2],"categories":[],"categories_nodes":[],"categories_segments":[],"categories_sizes":[],"default_left":[0,0,0,0,0,0,0,0,0,0,0,0,0,0,0,0,0,0,0,0,0,0,0,0,0,0,0,0,0,0,0,0,0,0,0,0,0,0,0,0,0,0,0,0,0,0,0,0,0,0,0,0,0,0,0,0,0,0,0,0,0,0,0,0,0,0,0,0,0,0,0,0,0,0,0,0,0,0,0,0,0,0,0,0,0,0,0,0,0,0,0,0,0,0,0,0,0,0,0,0,0,0,0,0,0,0,0,0,0,0,0,0,0,0,0,0,0,0,0,0,0,0,0,0,0,0,0,0,0,0,0,0,0,0,0,0,0],"id":10,"left_children":[1,3,5,7,9,11,13,15,17,19,21,23,25,27,29,31,-1,33,35,-1,37,39,41,43,45,-1,47,49,51,53,55,-1,57,59,61,63,-1,65,-1,67,69,71,73,-1,-1,-1,75,77,-1,79,81,83,-1,85,87,89,91,93,-1,95,97,99,-1,101,103,105,-1,107,109,111,113,115,-1,117,119,121,123,125,127,-1,-1,-1,129,-1,-1,-1,-1,-1,131,-1,133,-1,135,-1,-1,-1,-1,-1,-1,-1,-1,-1,-1,-1,-1,-1,-1,-1,-1,-1,-1,-1,-1,-1,-1,-1,-1,-1,-1,-1,-1,-1,-1,-1,-1,-1,-1,-1,-1,-1,-1,-1,-1,-1,-1,-1,-1],"loss_changes":[4.064874E2,1.7936305E2,7.700575E1,1.4255347E2,1.3833966E2,6.297744E1,5.5971436E1,7.887192E-1,8.9386086E1,7.543388E1,8.0007996E1,2.0633316E0,1.5724979E1,4.1128845E0,1.0175546E2,5.414047E-1,0E0,8.570227E1,2.7670212E1,0E0,1.1133423E1,5.73508E1,1.1500311E2,2.5408006E0,1.2359543E0,0E0,7.779751E-1,1.0429743E1,1.9223022E-1,9.777832E0,3.2819946E1,0E0,3.1151257E0,5.1203453E1,2.319645E0,5.954712E0,0E0,7.213852E0,0E0,1.5231018E1,7.553354E1,8.066391E0,6.690879E1,0E0,0E0,0E0,1.4728708E1,2.550068E-1,0E0,2.9298592E-1,2.9810817E0,5.7293444E0,0E0,7.444527E0,1.1789627E0,4.6031113E1,5.0268738E1,2.3588455E0,0E0,2.4909004E1,2.9663345E1,8.037301E0,0E0,1.0978546E0,5.6447134E0,6.3077927E0,0E0,4.1815643E0,1.3006859E1,9.965418E1,3.4179535E1,2.9730371E1,0E0,2.9611053E0,3.8482086E1,3.3286536E0,3.543663E-1,1.7182698E0,2.0186064E0,0E0,0E0,0E0,1.6513752E0,0E0,0E0,0E0,0E0,0E0,4.7069116E0,0E0,3.8060833E1,0E0,3.7413605E1,0E0,0E0,0E0,0E0,0E0,0E0,0E0,0E0,0E0,0E0,0E0,0E0,0E0,0E0,0E0,0E0,0E0,0E0,0E0,0E0,0E0,0E0,0E0,0E0,0E0,0E0,0E0,0E0,0E0,0E0,0E0,0E0,0E0,0E0,0E0,0E0,0E0,0E0,0E0,0E0,0E0,0E0,0E0,0E0],"parents":[2147483647,0,0,1,1,2,2,3,3,4,4,5,5,6,6,7,7,8,8,9,9,10,10,11,11,12,12,13,13,14,14,15,15,17,17,18,18,20,20,21,21,22,22,23,23,24,24,26,26,27,27,28,28,29,29,30,30,32,32,33,33,34,34,35,35,37,37,39,39,40,40,41,41,42,42,46,46,47,47,49,49,50,50,51,51,53,53,54,54,55,55,56,56,57,57,59,59,60,60,61,61,63,63,64,64,65,65,67,67,68,68,69,69,70,70,71,71,73,73,74,74,75,75,76,76,77,77,78,78,82,82,88,88,90,90,92,92],"right_children":[2,4,6,8,10,12,14,16,18,20,22,24,26,28,30,32,-1,34,36,-1,38,40,42,44,46,-1,48,50,52,54,56,-1,58,60,62,64,-1,66,-1,68,70,72,74,-1,-1,-1,76,78,-1,80,82,84,-1,86,88,90,92,94,-1,96,98,100,-1,102,104,106,-1,108,110,112,114,116,-1,118,120,122,124,126,128,-1,-1,-1,130,-1,-1,-1,-1,-1,132,-1,134,-1,136,-1,-1,-1,-1,-1,-1,-1,-1,-1,-1,-1,-1,-1,-1,-1,-1,-1,-1,-1,-1,-1,-1,-1,-1,-1,-1,-1,-1,-1,-1,-1,-1,-1,-1,-1,-1,-1,-1,-1,-1,-1,-1,-1,-1],"split_conditions":[3.6E0,2.1E0,2.2E0,3.25275E1,1.9E0,4.03E1,2.86E1,1.16618E1,1.81E1,1.8E0,4.35E1,4E0,-2.2E0,2.54E1,3.17E1,3.1856468E1,-2.1916404E-2,5.9E0,3.65E1,-1.1762997E-1,-2.9E0,3.293157E1,1.64E1,3.7E1,3.65E1,-9.965062E-2,7.9114094E0,1.14E1,7.1018786E0,3.9E0,7.1018786E0,-1.2010459E-1,3.5E0,4.3E0,6.1E0,3.6E1,-1.2926011E-1,3.89E1,-9.609229E-2,3E0,4.01E1,4.3E0,1.93E1,5.4218143E-2,-8.468005E-2,-1.1992072E-1,3.66E1,7.593168E0,1.16508044E-1,1.1121205E1,1.20168705E1,2.78E1,1.1567706E-1,3.0714205E1,3.16E1,3.3131878E1,7.2E0,1.9E0,-1.0801884E-1,3.61E1,7E-1,8.9E0,-1.294762E-1,3.51E1,3.6155384E1,2.97E1,-1.1400515E-1,2.3E0,8E0,1.29E1,1.81E1,3E0,-1.372802E-1,7.0313582E0,1.69E1,-2.2E0,4.01E1,4.09E1,4.08E1,6.6296555E-2,1.1969427E-1,-1.2386524E-1,1.2842224E1,1.0991607E-1,-6.7286536E-2,-9.272467E-2,1.1139299E-1,-1.2722395E-1,7.351904E0,-2.0682262E-1,4.33E1,1.4586641E-1,7.2069087E0,-5.520434E-2,8.776415E-2,-1.1300899E-1,7.3874593E-3,-1.2360227E-1,8.642529E-2,-1.12622514E-1,1.0269677E-1,1.1564448E-1,8.701847E-2,-6.134386E-2,7.965727E-2,-9.528585E-2,8.3191656E-2,-7.4121475E-2,-1.20803595E-1,-4.979374E-2,-1.1582215E-1,-4.988728E-2,3.1516623E-2,-1.2697499E-1,-5.4238733E-2,-1.18182994E-1,1.9398855E-1,1.5435395E-2,1.7057781E-1,-1.4127725E-1,1.4669073E-1,-8.280188E-2,5.9663422E-2,-1.1888345E-1,-2.8360197E-2,9.701701E-2,-2.3201639E-2,-4.63407E-2,8.239696E-2,4.452259E-2,-4.6055432E-2,5.4204434E-2,-1.2563662E-1,2.232928E-2,-1.6908284E-1,-2.7035339E-2,4.37002E-2],"split_indices":[2,2,1,3,1,3,3,4,0,1,3,2,0,3,3,3,0,1,3,0,0,3,0,3,3,0,4,4,4,0,4,0,1,1,1,3,0,3,0,2,3,1,0,0,0,0,3,4,0,4,4,3,0,3,3,3,4,2,0,3,0,0,0,3,3,3,0,2,4,1,0,0,0,4,1,0,3,3,3,0,0,0,4,0,0,0,0,0,4,0,3,0,4,0,0,0,0,0,0,0,0,0,0,0,0,0,0,0,0,0,0,0,0,0,0,0,0,0,0,0,0,0,0,0,0,0,0,0,0,0,0,0,0,0,0,0,0],"split_type":[0,0,0,0,0,0,0,0,0,0,0,0,0,0,0,0,0,0,0,0,0,0,0,0,0,0,0,0,0,0,0,0,0,0,0,0,0,0,0,0,0,0,0,0,0,0,0,0,0,0,0,0,0,0,0,0,0,0,0,0,0,0,0,0,0,0,0,0,0,0,0,0,0,0,0,0,0,0,0,0,0,0,0,0,0,0,0,0,0,0,0,0,0,0,0,0,0,0,0,0,0,0,0,0,0,0,0,0,0,0,0,0,0,0,0,0,0,0,0,0,0,0,0,0,0,0,0,0,0,0,0,0,0,0,0,0,0],"sum_hessian":[4.2291987E3,2.3223606E3,1.9068378E3,4.9454337E2,1.8278174E3,1.0302487E2,1.803813E3,6.4156555E1,4.303868E2,1.6004965E2,1.6677677E3,7.37493E1,2.9275574E1,1.2390648E2,1.6799065E3,6.269179E1,1.4647621E0,2.5051447E2,1.7987233E2,2.3217438E1,1.3683221E2,1.5584331E3,1.0933457E2,3.3168724E0,7.043242E1,3.772355E0,2.550322E1,2.496009E1,9.894639E1,4.932034E1,1.6305862E3,5.4014286E1,8.6775055E0,2.0730792E2,4.3206554E1,1.7552124E2,4.351082E0,1.3388611E2,2.9461095E0,3.3009274E2,1.2283403E3,3.925311E1,7.008147E1,1.737328E0,1.5795442E0,3.290643E1,3.7525993E1,9.250271E0,1.6252949E1,1.729823E1,7.6618605E0,9.272314E0,8.967407E1,5.2199464E0,4.4100395E1,1.840951E2,1.4464911E3,2.6712394E0,6.0062656E0,8.454475E1,1.2276317E2,6.306379E0,3.6900177E1,1.6534402E2,1.0177221E1,1.3279314E2,1.0929683E0,1.8241711E2,1.4767561E2,9.6280457E2,2.655358E2,1.3918265E1,2.5334845E1,5.083456E1,1.9246904E1,8.036643E0,2.9489351E1,6.224879E0,3.0253925E0,6.651781E0,1.0646448E1,1.4985029E0,6.1633573E0,7.6871223E0,1.5851921E0,2.3392975E0,2.8806489E0,3.9964302E1,4.1360903E0,9.330364E0,1.7476472E2,4.525404E1,1.4012369E3,1.5039792E0,1.1672603E0,2.2744846E1,6.17999E1,6.274521E0,1.1648865E2,4.7120056E0,1.5943732E0,1.3057356E2,3.4770462E1,3.655114E0,6.5221076E0,1.2204783E0,1.3157266E2,2.8974054E1,1.5344305E2,1.0498934E2,4.2686275E1,7.7712146E2,1.8568312E2,1.454471E2,1.2008868E2,1.0773198E1,3.1450675E0,1.475663E0,4.93589E1,1.3318946E1,5.9279585E0,1.145255E0,6.891388E0,2.8307417E1,1.181935E0,5.1687536E0,1.0561249E0,1.3779566E0,1.6474358E0,3.5377574E0,2.6256E0,1.8175874E0,2.3185031E0,1.646783E2,1.00864315E1,7.860565E1,1.3226313E3],"tree_param":{"num_deleted":"0","num_feature":"6","num_nodes":"137","size_leaf_vector":"1"}},{"base_weights":[-4.3913806E-3,-2.7647215E-1,2.9914346E-1,2.3489845E-1,-4.1823083E-1,-5.529996E-1,3.499176E-1,-1.1010914E0,4.307534E-1,-2.1949632E-2,-6.010594E-1,-9.721195E-1,5.2160203E-1,9.965141E-1,3.0573428E-1,-1.1196606E0,-2.0658797E-2,-3.0553045E-2,8.4970814E-1,1.2547383E-1,-1.1884788E0,-9.726929E-1,-2.807427E-1,-9.9870175E-1,1.1738316E-2,-1.06599264E-1,9.7049993E-1,5.892568E-1,1.0953107E0,-1.0276829E0,3.4312543E-1,-1.1744958E-1,-6.964289E-1,4.6513322E-1,-1.4076247E0,9.1377E-1,-1.0965798E-1,-5.476573E-1,3.4292063E-1,-1.2936728E-1,-5.087043E-1,-4.7111022E-1,-1.1202738E0,-4.388243E-1,9.818078E-1,-1.18534885E-1,-8.136219E-1,2.1390732E-2,-1.9374216E-2,6.0694987E-1,1.1354995E-1,9.960578E-1,-3.0077878E-1,7.241988E-1,1.1254778E-1,1.8739785E-1,-1.175823E0,5.658836E-1,2.400506E-1,1.3833664E-1,-1.0473777E-1,8.646584E-1,-9.131251E-1,-1.6842745E-1,-1.210554E-1,-1.1062218E-1,9.8971665E-1,-9.127022E-1,8.1630856E-2,1.9961981E-1,1.9397917E0,-1.09858535E-1,1.24076605E-1,-1.1919473E0,8.135136E-1,-7.974611E-1,-1.2892146E0,-3.1233E-1,-1.3026898E0,1.5151975E0,-4.6341518E-1,-6.888618E-2,-1.0883195E0,7.214145E-1,2.5378367E-1,6.2316835E-2,1.15829006E-1,-1.16425745E-1,4.4362966E-2,1.06808804E-1,-6.2041104E-2,-8.939513E-2,1.06371775E-1,-1.2360722E-1,-4.861793E-1,-4.401636E-1,6.119994E-1,2.8024912E-1,-1.4700383E0,-5.2448906E-2,8.409264E-2,-9.185843E-2,1.0302877E-1,-1.3178389E-1,6.312896E-2,-1.5859894E-1,7.7148736E-2,1.0060491E-1,-9.804585E-2,-1.2111266E-1,-4.1838393E-2,1.7819265E-1,-5.817793E-2,5.1235326E-2,-8.619999E-2,-9.100383E-2,2.2611097E-1,-1.2338568E-1,-2.105417E-2,-1.20459E-1,1.4749968E-1,-4.261534E-2,-1.2360966E-1,-1.308201E-1,7.671468E-2,-1.7268857E-2,-1.19896315E-1,-1.3918035E-1,1.4480163E-1,1.4497946E-2,1.55288E-1,-1.3459067E-1,1.3305856E-1,-9.830178E-2,2.582292E-2,-1.1618755E-1,-5.504137E-2,9.275388E-2,-2.190393E-2,-4.3106683E-2,7.947998E-2,4.1683443E-2,-4.2417727E-2,5.1549662E-2,-1.1876948E-1,-1.1514819E-1,8.703835E-2,8.1174254E-2,3.8128868E-2,1.1897516E-2,8.264931E-2,1.1040198E-1,-1.6407387E-1],"categories":[],"categories_nodes":[],"categories_segments":[],"categories_sizes":[],"default_left":[0,0,0,0,0,0,0,0,0,0,0,0,0,0,0,0,0,0,0,0,0,0,0,0,0,0,0,0,0,0,0,0,0,0,0,0,0,0,0,0,0,0,0,0,0,0,0,0,0,0,0,0,0,0,0,0,0,0,0,0,0,0,0,0,0,0,0,0,0,0,0,0,0,0,0,0,0,0,0,0,0,0,0,0,0,0,0,0,0,0,0,0,0,0,0,0,0,0,0,0,0,0,0,0,0,0,0,0,0,0,0,0,0,0,0,0,0,0,0,0,0,0,0,0,0,0,0,0,0,0,0,0,0,0,0,0,0,0,0,0,0,0,0,0,0,0,0,0,0,0,0,0,0],"id":11,"left_children":[1,3,5,7,9,11,13,15,17,19,21,23,25,27,29,31,-1,33,35,37,39,41,43,45,47,-1,49,51,53,55,57,-1,59,61,63,65,-1,67,69,-1,71,73,75,77,79,-1,81,-1,-1,83,-1,85,87,89,-1,91,93,95,97,99,-1,101,103,-1,-1,105,107,109,111,113,115,-1,-1,117,119,121,123,125,127,129,131,133,135,137,139,-1,-1,-1,141,-1,-1,-1,-1,-1,143,145,147,149,151,-1,-1,-1,-1,-1,-1,-1,-1,-1,-1,-1,-1,-1,-1,-1,-1,-1,-1,-1,-1,-1,-1,-1,-1,-1,-1,-1,-1,-1,-1,-1,-1,-1,-1,-1,-1,-1,-1,-1,-1,-1,-1,-1,-1,-1,-1,-1,-1,-1,-1,-1,-1,-1,-1],"loss_changes":[3.402338E2,1.5758023E2,8.444795E1,1.2401871E2,1.2324652E2,5.000105E1,5.2217056E1,7.760849E-1,7.974973E1,9.269509E1,1.3830573E2,2.0884628E0,2.3473028E1,4.068016E0,8.6222305E1,5.5570984E-1,0E0,1.3532762E2,2.79599E1,7.025026E1,3.6662903E0,3.933368E1,1.2549926E2,1.7069016E0,1.6928303E-1,0E0,8.145561E-1,9.363873E0,2.2734833E-1,8.721592E0,3.8347687E1,0E0,2.8535647E0,8.108865E1,8.2167816E-1,1.6436966E1,0E0,2.7010815E1,8.254368E1,0E0,1.14271555E1,1.1593007E2,2.1623291E1,6.052442E1,5.4692543E1,0E0,8.52066E0,0E0,0E0,2.2011852E-1,0E0,3.3162117E-1,2.620949E0,5.196274E0,0E0,6.6316533E0,1.1538849E0,2.483397E1,7.930046E1,2.1268408E0,0E0,3.4489548E1,2.1619865E1,0E0,0E0,2.1245813E1,7.2765656E0,1.0452538E1,5.0630344E1,1.11224396E2,2.92807E1,0E0,0E0,3.0277405E0,6.2139214E1,2.3140144E1,1.158551E1,6.0174973E1,1.9395859E1,2.4283905E0,3.2895157E1,3.9586043E0,5.722847E-1,1.5581713E0,1.8187835E0,0E0,0E0,0E0,1.4198216E0,0E0,0E0,0E0,0E0,0E0,4.1549015E0,2.3177883E1,2.3039917E1,9.875018E1,1.3462559E1,0E0,0E0,0E0,0E0,0E0,0E0,0E0,0E0,0E0,0E0,0E0,0E0,0E0,0E0,0E0,0E0,0E0,0E0,0E0,0E0,0E0,0E0,0E0,0E0,0E0,0E0,0E0,0E0,0E0,0E0,0E0,0E0,0E0,0E0,0E0,0E0,0E0,0E0,0E0,0E0,0E0,0E0,0E0,0E0,0E0,0E0,0E0,0E0,0E0,0E0,0E0,0E0,0E0,0E0],"parents":[2147483647,0,0,1,1,2,2,3,3,4,4,5,5,6,6,7,7,8,8,9,9,10,10,11,